nep4 7 Dy Er Ho Nb O Y Yb 
cutoff 6 5 76 46
n_max 4 4
basis_size 8 8
l_max 4 2 0
ANN 30 0
 -2.2439291e-03
 -3.6480622e-03
  4.0247017e-03
 -1.3161346e-02
 -4.1536130e-03
 -8.9250645e-03
  2.3273905e-03
  7.8780064e-03
  1.3794307e-02
  1.9236816e-02
  2.2898160e-02
 -8.5293744e-03
  4.5086956e-03
  6.3908445e-03
  1.5020144e-02
 -3.4851958e-03
  7.4472451e-03
  4.5958230e-05
 -1.3190969e-02
  5.6402404e-03
 -1.1829767e-02
 -1.1379794e-02
  6.4127421e-04
 -3.3164196e-02
  2.3633655e-04
 -2.5954125e-02
 -5.6089211e-04
 -2.0401670e-02
  7.2363131e-03
 -1.3999041e-03
  1.1745232e-02
  4.7975178e-03
 -5.9586013e-04
 -5.0167497e-03
 -4.2105361e-04
 -5.1574027e-03
  1.5784083e-02
 -2.8328686e-03
  5.0551435e-03
 -1.3997051e-02
 -1.4783765e-02
  8.9660594e-03
 -4.6616074e-02
  1.2319717e-03
  2.9399343e-02
 -1.5602185e-02
 -6.3184658e-03
  7.5837006e-03
 -1.4514414e-02
  1.5572245e-02
  1.3624232e-02
 -1.0246892e-03
 -1.2160517e-02
  3.0787218e-02
 -8.8719223e-03
 -8.8872602e-03
  1.7945329e-02
 -2.3636625e-03
  1.2484441e-02
 -7.2474014e-03
 -1.1528507e-03
  4.0453589e-03
  1.3617084e-02
 -9.0033002e-03
 -6.5963564e-04
  1.4327732e-02
 -3.8596161e-03
 -9.7484235e-03
  6.7086397e-03
  1.1440005e-02
  1.7951875e-03
  3.5257369e-02
 -3.9649974e-03
  1.3479166e-03
  1.8758863e-02
  1.0686122e-02
  3.2705914e-03
 -2.6340786e-02
  7.8280494e-03
  9.3613230e-03
 -8.0769062e-03
 -3.1179788e-02
  4.9119530e-04
 -1.6025615e-01
  5.3742379e-03
 -8.1803584e-03
 -1.6041243e-02
  1.0884832e-02
  2.1518849e-02
 -4.3410450e-01
 -3.4149636e-03
  3.1397358e-02
  4.3987641e-03
  9.3953478e-01
  1.9003101e-02
  2.4320006e-02
 -1.8477285e-02
 -2.4727120e-03
 -6.8573141e-03
 -3.1057463e-03
 -2.9353097e-03
 -2.1993462e-03
  2.2306347e-02
 -8.0735441e-03
  2.6729118e-02
  8.0481907e-03
 -2.4296886e-03
 -2.3916103e-02
 -1.3071625e-02
  1.5957594e-02
 -1.0379449e-02
  1.6406229e-02
  4.3841689e-03
 -7.0522155e-04
  1.4531999e-02
  8.0717141e-03
 -1.4160418e-02
  2.0426713e-02
  1.7406054e-02
  4.6090879e-03
 -1.6495524e-02
  3.9586159e-03
 -9.0480722e-02
  2.2680001e-02
 -4.1592615e-03
  1.1781959e-02
  1.2096002e-02
  4.9399573e-04
  1.6389834e-02
  3.1719989e-01
 -4.0629641e-03
 -3.5428915e-02
 -2.7245888e-02
 -3.4212112e-02
 -7.9261251e-02
 -3.3513751e-02
 -5.0576027e-03
 -9.5477179e-03
 -4.0710736e-03
  7.2408414e-01
 -2.7221284e-05
  6.9765071e-03
 -8.3508799e-03
  7.9829749e-03
 -3.2295953e-02
 -6.8919413e-04
 -1.7021276e-02
  1.4184164e-02
  2.0470010e-02
  2.9756421e-02
  1.3571014e-02
 -8.9902780e-05
  3.0504875e-03
  2.1794707e-02
 -1.2051809e-03
  2.5538306e-03
  6.6981884e-03
  3.7794772e-03
 -2.1172391e-02
  1.4046993e-02
 -1.0089143e-02
  1.6578451e-02
 -6.4372737e-03
  1.8943200e-02
  1.6279592e-03
 -5.3170016e-03
 -4.7365241e-02
  1.8861955e-02
  6.7690983e-03
 -2.7248617e-03
 -3.9786641e-03
  5.0309341e-04
  2.5194407e-02
 -2.1078154e-03
  1.9302575e-02
  1.3783124e-02
  1.0037621e-03
  1.0224959e-02
  2.5207715e-03
 -7.0557278e-03
  4.6249945e-02
 -1.2833036e-03
  9.0750685e-04
  1.2517133e-03
 -2.2859916e-03
  1.1583709e-02
  1.1146587e-02
 -7.7687614e-03
 -2.0177932e-03
 -1.2433621e-03
 -1.7800480e-02
  5.1051821e-03
  3.5580706e-03
 -1.1483847e-02
  4.8347912e-03
  7.9631805e-03
  1.9183816e-02
  1.5440022e-02
  1.3629426e-02
 -2.0890287e-03
  3.7575793e-02
  3.4912487e-03
 -2.2139512e-03
 -1.1109115e-02
 -1.5576669e-02
 -1.6839029e-02
 -1.2573820e-02
  2.1908343e-02
  3.3308815e-03
  2.7171275e-02
 -1.2498651e-02
  9.0274995e-04
 -3.6332685e-01
  1.3860676e-02
 -7.3133485e-04
  3.5482157e-02
  7.4029374e-03
  6.0803154e-03
 -1.4929175e-02
  1.3941897e-03
 -2.1621764e-02
 -2.9382514e-04
  1.9632950e-03
 -3.1410411e-04
  4.7478410e-03
  1.8998485e-03
  1.3943273e-01
 -2.8241521e-02
  3.9553372e-03
 -1.4063501e-03
  3.9158929e-03
  1.3434595e-03
 -8.0282418e-03
  1.9525591e-03
 -8.6720362e-03
 -1.3082908e-02
  1.5948698e-02
 -8.3482219e-03
  7.2675338e-03
  2.2379961e-02
 -3.7766382e-04
  1.1455378e-02
  8.3045838e-03
  2.4481176e-03
  1.6023248e-02
 -3.5685557e-03
  1.8140668e-02
 -1.6560202e-03
 -3.0496502e-03
 -1.9059945e-02
  7.0264395e-03
  5.2884654e-03
 -1.2890995e-02
 -3.1335749e-02
 -1.2706203e-03
  2.1858679e-02
  1.4333233e-03
  2.3280473e-04
  2.4792461e-03
 -1.8731438e-02
 -1.8804900e-02
  8.1406435e-04
  6.5206937e-03
 -2.7369561e-02
  1.4691724e-02
  3.9608788e-02
  9.1478145e-03
 -4.8366357e-03
  1.1915049e-03
 -1.5179027e-02
  7.9890853e-04
  4.0312447e-03
  2.5826241e-04
 -1.8732531e-02
  1.1969074e-02
 -5.5023883e-03
 -1.5961858e-02
  9.8682418e-03
 -2.0799264e-02
 -8.0997255e-03
 -2.2201166e-03
 -3.1020155e-02
  8.0740685e-04
 -1.5793687e-02
  4.2242426e-03
 -7.0302351e-03
 -1.9656854e-02
  2.2565178e-04
 -2.2924690e-02
  1.5574832e-02
 -8.7667452e-03
 -4.6084806e-02
  2.0562573e-03
 -2.1824203e-03
 -9.0889802e-04
  3.0102169e-03
  3.3122916e-02
 -2.5251059e-02
  1.4468721e-02
 -5.1433379e-03
  7.1552722e-03
  1.3858526e-03
 -1.1379851e-03
 -4.2095566e-03
 -1.3878693e-02
 -4.4509675e-03
 -1.9213132e-03
  3.3286316e-03
  1.5804516e-02
 -1.9034354e-02
 -1.6700601e-02
  4.1497685e-03
 -1.1617963e-02
  8.5657164e-03
 -6.0563595e-03
 -1.1835997e-02
 -1.7034745e-02
  2.8339086e-02
 -5.2789226e-04
 -6.1017554e-03
 -1.3459948e-02
  7.4164183e-03
 -1.1728399e-02
  2.0949254e-02
 -1.5880736e-02
  1.2632875e-02
 -2.7929184e-03
  1.9153927e-02
 -2.9975070e-02
 -3.5238988e-03
  2.9732242e-02
  5.7115788e-03
  5.7771063e-01
 -1.4499085e-02
  9.7299111e-04
 -1.4882262e-02
 -4.2814417e-03
 -7.1266205e-03
  1.1889950e-02
  1.1456515e-02
  1.2429885e-02
  1.1427602e-02
 -3.0103263e-02
  1.0217528e-02
  5.9420820e-03
  2.0137191e-02
  4.0736794e-04
 -1.8454509e-02
  1.7590346e-02
  9.7899744e-03
 -3.7015139e-03
  3.4646355e-03
  2.3136951e-02
 -2.2096630e-02
  6.5214983e-03
 -1.9537250e-02
 -3.1218881e-02
 -1.6051855e-02
 -3.0194302e-03
 -3.0308093e-03
  1.5287639e-02
  3.9252513e-03
  1.8282553e-02
 -5.8728154e-03
  4.3029827e-03
  5.2864188e-03
 -1.6753055e-03
 -3.4977710e-03
  3.6534215e-03
  3.6164131e-03
  1.8070973e-03
  1.3273005e-02
 -1.2516060e-02
  7.8981100e-03
  1.5901567e-02
 -4.6539409e-03
 -4.9945405e-03
 -7.2359387e-03
  1.8548209e-02
  1.5750454e-03
 -8.8413553e-03
 -1.2296445e-02
  3.5586038e-03
  1.0556300e-02
 -8.5950381e-04
 -6.2706217e-04
 -4.2062453e-03
 -1.7433003e-02
 -1.2401341e-02
  1.6405074e-02
  5.3873878e-02
 -3.3357933e-03
 -3.5318878e-02
 -3.7285632e-01
 -5.7006823e-03
  9.8310094e-03
 -1.4204154e-03
 -2.4134154e-03
 -1.2405495e-03
 -1.6268541e-03
  6.0972190e-03
  7.1020676e-03
 -1.1753215e-02
  2.0570315e-03
  2.5872567e-03
  1.0864699e-02
  2.5651273e-03
  1.0090837e-02
  2.3441346e-02
  3.4333963e-04
  6.9075986e-03
 -1.4641312e-03
  2.4228457e-02
 -4.8785834e-03
  2.5119334e-02
 -1.4035338e-02
  2.6092557e-02
  7.6271826e-04
  1.4438316e-04
 -7.1777217e-04
 -1.4957327e-02
  7.4223303e-03
 -5.6260461e-01
 -1.7385304e-02
  2.5585638e-02
  7.1385014e-03
 -4.8150059e-02
  5.2074404e-03
 -3.1532868e-04
  6.8342763e-01
  2.0625377e-03
  2.3137918e-03
  2.9162124e-02
 -7.8486633e-03
 -3.1558341e-01
 -2.1540517e-02
  3.5110845e-03
  1.3621205e-02
 -7.0276679e-03
  6.1295199e-01
 -7.0975530e-03
  6.0625290e-03
  1.4693727e-03
  1.5192125e-02
 -1.5002783e-01
  2.5646475e-03
 -1.0686982e-02
 -7.0455577e-03
  1.9210013e-02
 -2.8295139e-02
  1.2310313e-02
  5.1117083e-03
 -3.4082390e-03
  2.4762549e-02
 -1.0648643e+00
  3.6990945e-03
  1.8236395e-02
 -9.2793312e-03
 -1.2473843e-02
  1.0237625e-03
 -3.0319190e-03
 -1.2117232e-02
  9.3085682e-03
 -3.8343813e-02
  3.1002928e-02
 -7.9774437e-03
 -1.7005537e-03
 -1.4082012e-02
  8.2859835e-03
 -2.0712549e-02
 -2.5479203e-02
 -1.0437530e-02
 -2.7580783e-03
 -1.5429570e-02
  5.9790029e-03
  1.3522776e-02
 -1.6722824e-02
  1.0940352e-02
 -3.1179707e-03
  6.3978974e-04
  1.4026847e-03
  2.1084584e-02
  4.6392842e-04
 -2.2647766e-02
 -9.4842641e-03
 -2.0621572e-02
  7.4762525e-04
 -4.5677680e-03
 -1.1151107e-02
 -6.9668563e-03
  2.5410416e-02
 -2.0659179e-03
 -7.4092518e-03
 -4.4073709e-03
 -1.1424755e-03
 -1.0806863e-03
 -2.4995076e-02
 -2.6207821e-02
  9.6396031e-03
 -8.0112638e-03
 -2.2748141e-02
 -2.0894045e-02
  1.6313788e-02
  2.5684906e-03
  3.6001075e-03
 -1.8922850e-03
  9.2580738e-03
  6.8692220e-03
 -2.3876868e-02
  1.0758065e-02
  1.6827120e-02
  9.5061529e-03
 -3.0708951e-03
 -6.3579851e-03
  7.3735826e-03
  4.0932801e-02
  7.1844473e-03
  4.7109458e-03
  2.2046790e-02
  5.2226754e-04
 -1.9510540e-03
 -1.1238621e-02
 -5.7781697e-03
 -4.2016748e-03
 -1.4599015e-02
 -4.3575978e-03
 -7.4118613e-03
 -2.1031173e-03
 -2.0577151e-02
  6.4628478e-03
 -1.4328822e-02
 -1.7513685e-02
  3.8054299e-02
  8.1033530e-03
  1.7240414e-02
  1.5537976e-02
  3.9791893e-03
 -6.2419330e-03
 -6.6281389e-03
  6.1448407e-03
 -2.7615277e-03
  9.8022749e-04
  8.0551831e-03
  9.8293796e-03
 -3.1371324e-04
  1.6516317e-02
  5.2190535e-03
 -2.1217826e-03
  3.4869411e-03
  8.1433641e-04
  8.2413983e-03
 -7.5827613e-03
 -4.1068070e-02
 -1.9680005e-03
  4.0331860e-03
  2.2908084e-03
  4.5390511e-03
  1.5272740e-02
 -9.6211210e-03
 -3.7346099e-02
 -4.9292683e-03
 -6.3485196e-03
  2.3403675e-03
  1.2071127e-02
  9.6966950e-03
 -1.8532805e-02
 -2.3180242e-03
 -4.2287554e-04
 -3.1139508e-03
 -3.4452628e-02
 -1.5133715e-02
 -2.1002389e-02
  1.3578746e-02
  2.1038832e-04
  8.7393662e-03
 -3.8521639e-03
  7.1824579e-03
  1.4372731e-02
  1.8292453e-02
  1.9061971e-01
 -4.8034349e-03
 -2.9195307e-03
 -8.6791476e-04
  4.7611571e-03
  2.2490316e-03
 -1.7713316e-02
 -3.9044286e-03
 -8.7196594e-03
 -3.3982910e-02
  1.6895239e-01
  3.7134480e-02
  1.4670371e-03
  9.1652600e-03
 -1.9811098e-03
 -2.3632018e-02
  1.1477883e-02
  8.2869474e-03
 -5.0949133e-03
 -1.4458854e-02
 -1.6171115e-02
 -3.3642501e-02
 -4.9092364e-03
  1.3956735e-01
 -1.5103479e-03
  2.0078780e-02
 -5.9815366e-03
  7.3570060e-03
  5.3359440e-04
  5.9385053e-03
 -3.8442217e-02
  1.5168087e-02
  3.0574448e-02
 -7.2414568e-03
 -1.8516704e-02
  2.0716716e-02
  2.0160791e-02
  6.1544604e-03
 -1.2851785e-02
 -3.9575238e-02
  3.9370428e-03
  1.9087366e-04
 -3.1982869e-02
  2.2028381e-02
 -5.2700834e-03
 -3.0323265e-02
 -6.9714980e-03
  2.0648537e-02
  4.4881292e-03
  2.6291402e-03
 -2.8083613e-02
  4.3943203e-03
  1.5670938e-02
 -2.3950232e-02
 -3.1498799e-04
 -3.1929914e-02
  9.0512820e-03
 -8.6035449e-03
  5.8219861e-03
  3.3809952e-02
 -1.0897789e-02
  1.0272233e-02
 -2.2087004e-02
 -3.7576847e-02
 -7.5714900e-03
  1.3940435e-02
  7.6623885e-03
 -1.2510681e-03
  2.6694873e-02
 -6.4786309e-03
 -2.2701083e-02
 -2.6998581e-02
  4.8215079e-04
 -3.1254005e-03
  1.2735077e-02
 -1.2786373e-02
 -2.2623952e-02
  2.1055289e-02
 -8.4269177e-03
 -4.0901275e-03
 -9.7023998e-04
 -3.4690883e-02
  1.1750678e-02
  1.7136326e-02
  1.4302241e-02
 -3.4248207e-03
  1.5031870e-02
 -5.0248541e-03
 -2.9250417e-02
  3.9300398e-04
 -3.4776345e-02
  4.1191285e-03
  2.4367731e-02
 -1.0443569e-02
 -5.9517729e-03
  7.0320782e-03
 -1.0745911e-02
 -6.9719292e-03
 -2.4322292e-02
 -3.2823831e-02
  1.4501873e-02
 -4.9652412e-05
  1.7796932e-02
  9.5621025e-04
  1.1403327e-03
 -2.1939164e-05
 -8.0994895e-04
  1.2781117e-02
 -2.6572726e-03
 -6.7670741e-03
 -7.9635372e-03
  1.9103611e-02
  3.7210365e-03
  1.6645167e-02
 -1.0480962e-02
 -2.4820935e-02
 -3.1055272e-02
  4.1530095e-04
  2.1143042e-02
 -6.1949138e-03
 -3.3085123e-01
  1.3872952e-02
  2.3622783e-03
 -1.7633690e-03
 -1.1938578e-02
  1.8067642e-01
 -6.6859619e-04
 -2.2380665e-02
  1.0412237e-02
  8.1666615e-03
 -3.0724925e-01
  5.5118911e-03
 -7.1426937e-03
 -1.0511121e-02
  6.2967339e-03
  3.4317125e-02
  2.1758431e-03
  1.1488704e-02
 -7.7579254e-03
 -4.5720967e-03
  1.2616609e-02
 -2.4373916e-03
  1.4111309e-02
  4.0169954e-03
 -1.0877032e-02
 -3.3196941e-02
  1.9717084e-02
  5.8960307e-02
 -1.0140641e-02
  1.2414944e-02
  7.9570332e-04
  9.1577340e-03
 -5.8588460e-03
  2.6435705e-02
  6.4645318e-04
  4.0628468e-03
  1.6657181e-02
  2.5258128e-02
 -6.4758165e-03
 -1.2523261e-02
  1.8371556e-02
 -3.2244992e-02
  9.7566638e-03
  2.1130733e-02
  2.2122755e-03
  8.4667988e-03
  4.2144670e-03
  4.8358971e-03
  5.8178143e-03
  1.3708438e-02
 -1.2201457e-02
 -2.5667088e-02
 -2.5774341e-02
  6.7491358e-04
  9.0375952e-03
 -6.6807256e-03
  4.0329960e-03
 -2.5398191e-02
  2.0251250e-02
 -2.9848538e-02
 -1.1432997e-02
 -6.0319848e-04
  9.5584821e-03
 -5.0322348e-03
 -7.8657204e-03
  1.1294778e-02
  2.9431486e-03
  3.3868506e-04
 -3.3207223e-02
 -6.8605305e-03
 -6.0558198e-03
 -3.2897182e-02
  8.2920049e-04
  1.2420191e-02
 -1.2407790e-02
 -1.3364085e-02
  2.3950351e-02
  2.8539615e-02
  3.9345501e-03
  8.3477190e-03
  3.6945064e-02
 -2.3015156e-02
  9.4055301e-03
  1.2798646e-02
 -1.6883387e-03
  4.0675662e-03
 -1.7064460e-02
 -4.4958042e-03
 -3.9285509e-04
 -3.9672282e-02
  8.4931385e-03
  5.3482070e-03
  1.0636942e-02
 -6.6151456e-03
  2.0787003e-02
  4.8299810e-01
 -2.7603277e-03
 -1.4673700e-03
 -2.3929519e-03
  2.3529578e-02
  9.7763948e-03
 -3.3885834e-03
 -5.3634425e-03
 -1.6247151e-02
 -1.1895684e-02
 -2.8974153e-03
  5.0559705e-03
  2.7882576e-03
 -7.7574060e-04
 -2.6343903e-03
  2.6267788e-03
 -9.3128625e-03
  5.0779570e-02
 -4.0954687e-02
  4.5238952e-03
 -8.3894754e-04
 -4.2812917e-03
  7.8642863e-04
  1.1251484e-02
 -3.8113423e-02
  2.8422007e-03
  2.8118296e-02
  3.2539975e-02
  2.0266545e-03
 -3.7842456e-03
 -3.5780056e-03
  6.8330010e-03
  6.1228666e-02
  4.4312485e-02
  1.0587867e-02
 -7.8563597e-03
  3.9509893e-03
  7.8282115e-04
 -5.2784863e-03
 -1.1230237e-02
  2.3130206e-03
 -9.4872406e-03
 -6.0831583e-03
  1.2791164e-02
  1.0424196e-02
 -4.7810012e-03
  1.5560989e-02
  2.0017887e-02
 -6.7104283e-03
 -1.2633489e-02
 -1.9074534e-03
  3.7709009e-03
  1.6285506e-03
  2.8482310e-02
  1.4713067e-02
 -1.9815774e-03
  2.3916043e-02
  2.3211330e-02
 -2.9235906e-03
 -1.4315195e-04
  1.8358864e-02
  2.9356815e-02
 -7.0983437e-03
 -2.1569796e-02
  1.9589083e-02
  1.7272644e-02
 -3.9706337e-03
  1.1418988e-02
 -5.2058897e-03
 -1.1300187e-02
 -2.8024870e-04
  2.7597304e-03
  6.4140810e-03
  1.3271568e-03
  2.2916922e-02
 -1.5751660e-03
 -3.7345249e-02
  1.6156964e-02
 -4.1207550e-03
  1.9372873e-02
 -1.0730552e-02
  4.2912547e-02
 -1.5647126e-02
  6.1145541e-03
  3.6069164e-03
 -1.0616231e-02
  1.4470042e-02
 -2.1578658e-02
 -2.1840425e-03
  7.6426985e-03
 -2.5706913e-02
 -4.4384390e-02
  1.1773089e-04
  2.0457646e-03
 -3.4168435e-03
  3.8002855e-03
 -1.7898006e-03
  5.4047331e-03
  5.1015464e-05
  6.0376208e-03
 -1.4195803e-02
 -2.7733797e-02
  2.1222237e-02
 -1.2236659e-03
  6.2478432e-03
 -2.2592722e-03
  1.5833432e-02
 -4.6224473e-03
 -1.4188156e-03
 -5.3463406e-03
  1.5649553e-02
 -2.3193801e-02
 -1.0503945e-03
  5.1100119e-03
 -1.7799599e-02
  1.8341940e-02
 -1.1097469e-02
 -5.0821849e-03
 -3.3108098e-03
  3.0889804e-02
  3.2739166e-02
  1.3678793e-02
 -2.9477680e-03
 -4.9589821e-03
  1.5105690e-03
  1.8979700e-03
  2.2152481e-03
 -2.6474427e-03
 -2.8436547e-03
  1.0769048e-02
  1.2020626e-02
 -2.1084931e-03
 -1.7708227e-02
 -2.2222828e-02
 -1.9311844e-03
  3.8032249e-02
 -1.9757051e-03
 -5.7406784e-03
 -9.6228719e-03
 -1.5804909e-02
 -5.7424152e-01
  2.5369385e-02
 -3.7929269e-03
 -1.0088483e-02
 -4.7696559e-03
 -4.4724349e-02
 -5.3134086e-03
  7.3053613e-02
  3.6546752e-02
 -1.7267606e-03
 -9.6228665e-01
 -2.1115784e-03
  2.4713173e-03
  6.7024408e-03
  9.2676319e-03
 -4.3746349e-01
  4.9072720e-02
 -1.0529795e-03
  2.8417124e-03
  4.7723654e-01
 -2.0390958e-02
 -2.5166951e-03
  1.0814733e-01
 -1.9001001e-02
 -1.7653247e-02
  1.2748239e-03
  1.4879596e-03
  6.6756383e-02
 -3.3829737e-02
 -5.3657847e-03
  1.8455765e-01
  8.4883813e-03
 -7.6925117e-01
 -1.0554186e-02
 -1.3064470e-02
  1.1790748e-03
 -3.9467622e-02
  2.3937093e-01
  1.7379025e-02
  1.1993897e-02
  1.9225087e-02
  5.4553204e-04
 -7.3323613e-01
  2.0100700e-03
  1.4209715e-02
 -3.4987189e-02
  2.3261192e-03
  1.5845388e-01
 -2.9314356e-03
  1.9145967e-02
  4.5331880e-03
 -1.0828759e-03
 -6.3329466e-02
 -1.0243099e-02
 -1.9850072e-01
 -7.7327052e-03
  5.3417427e-04
 -3.5018588e-03
  7.0259599e-03
  6.2621045e-03
 -1.2564972e-02
 -1.7664643e-02
 -6.9916047e-02
  1.4046728e-02
  4.4105500e-02
 -1.0738851e-03
  1.5742226e-02
 -2.5240534e-03
  5.9344331e-03
  3.3885531e-02
 -6.4138286e-03
 -3.3971551e-03
 -1.1091669e-01
  7.5369468e-03
 -2.0831516e-03
  4.2644716e-03
  2.5138448e-04
  1.6977925e-02
 -2.2048955e-03
  1.1208727e-02
 -1.5781516e-02
 -1.2925174e-02
 -1.6578281e-02
  7.8444351e-03
  2.6357858e-02
 -2.1131663e-02
 -1.7405739e-02
 -5.1643192e-03
  1.0421820e-02
 -1.4898056e-03
  1.0529740e-02
  1.9879302e-04
  2.6237569e-03
 -5.6906575e-03
 -9.4259428e-03
  3.3719491e-03
 -8.5703460e-03
  5.8106366e-06
 -7.5110737e-03
 -1.6557252e-02
  6.3130108e-04
  5.9737731e-03
  2.6343782e-02
  2.0502077e-03
  2.3034384e-02
  1.0219575e-02
  9.3130581e-03
 -7.2637610e-03
  1.8710578e-03
 -2.3099514e-02
 -8.5540507e-03
 -2.2072166e-04
 -4.2923242e-03
  5.5636135e-03
 -9.3501769e-03
 -2.2823961e-02
  5.3924113e-03
 -6.2874393e-03
 -1.1481096e-03
  5.6671766e-03
  7.8696944e-03
 -1.2933208e-02
 -2.4400764e-04
  1.5084960e-02
 -2.3482434e-02
  4.3009404e-02
  5.7145390e-03
  1.1492779e-02
  8.1819100e-03
  9.8809116e-03
 -4.7039161e-03
 -1.2894512e-02
  1.0378494e-02
  1.0447823e-02
 -1.2900349e-02
  7.6980605e-03
  2.4681652e-02
 -4.5416639e-03
  3.4587685e-04
 -2.5502367e-02
 -9.0351896e-03
 -3.0996308e-03
  3.6663751e-03
 -1.8075205e-02
  1.7528769e-03
 -1.8143812e-03
 -1.0329921e-02
  6.9686896e-03
  8.3475793e-03
  2.6295945e-02
  2.8608393e-02
  1.7499611e-02
 -9.8889257e-05
  8.1205252e-04
 -1.2912313e-03
  2.7381476e-02
 -6.7251152e-03
  2.2764232e-02
  2.3525420e-03
 -9.4544441e-03
 -8.4589953e-03
  1.9600299e-04
 -1.2822988e-02
  2.9493875e-03
 -1.5025180e-03
  9.7547136e-03
  1.6873905e-02
 -2.4144290e-02
 -2.1333937e-02
 -5.6069568e-03
 -1.2231174e-02
  6.8969344e-04
  4.2974856e-03
  6.6998457e-03
 -1.4040065e-02
 -5.4378349e-02
 -3.5632830e-03
  1.1609755e-02
 -8.6070485e-03
  5.0933445e-03
  3.5840560e-02
 -8.2107417e-02
 -1.9307524e-03
  1.1585032e-02
  8.8291643e-03
 -5.5017089e-04
  4.5256661e-03
  9.2862407e-03
 -3.7203280e-03
 -2.7669989e-02
 -9.0758214e-03
  5.9456979e-03
  1.4247064e-02
 -6.6732275e-03
 -4.8723910e-03
  3.0225497e-03
  2.8950440e-02
  2.1447309e-03
  4.8415740e-03
  4.0294761e-03
  5.8373110e-03
  2.4551596e-03
  1.7842131e-03
 -4.0413630e-03
  1.1991675e-02
 -2.0274043e-03
 -1.4569195e-02
  2.3532221e-02
 -7.9461914e-03
 -1.6074596e-02
  4.8251268e-03
 -2.4287689e-02
  1.0368788e-02
 -5.9517208e-03
 -8.9946249e-03
 -6.5798070e-03
  3.2791751e-03
 -2.0786185e-02
  4.1081842e-02
 -1.6541298e-02
  1.5131243e-02
  4.2109558e-04
  6.9960579e-03
  2.0963417e-03
  1.5169406e-02
 -1.5848260e-02
 -1.2317552e-04
 -3.0951321e-02
 -5.4978002e-03
  1.1517001e-02
 -6.4293640e-03
 -5.3729764e-03
 -6.5796021e-03
  3.9336027e-04
  9.1347145e-03
 -2.6574632e-02
 -7.6191435e-03
 -9.1864271e-03
  3.0977069e-03
 -5.4311124e-03
  4.1759321e-03
  1.7883196e-02
  2.8404178e-02
 -6.5267240e-03
 -8.1257345e-03
  9.7690839e-03
  1.2452891e-02
  1.0129407e-02
  1.2671820e-02
  9.8039983e-03
 -1.2437927e-02
  6.1576734e-03
  1.6467386e-03
 -8.0155460e-03
  5.7038120e-03
 -1.9393942e-03
 -4.6055196e-03
 -1.8052205e-02
 -1.4856427e-03
  8.7611461e-03
 -8.8798171e-03
 -9.8914588e-03
  4.8103616e-02
 -6.3281782e-02
 -3.9918954e-03
  7.2326926e-03
 -9.1120944e-04
 -1.4767991e-02
  3.3729309e-03
 -2.9016973e-03
  8.0552269e-03
  4.2266664e-03
  2.9603479e-04
 -1.1345510e-04
  3.3262426e-03
 -3.2395087e-02
 -9.8116780e-03
  1.4758994e-03
  2.3953507e-02
  2.0476168e-02
 -1.3158891e-03
 -5.5187601e-03
 -1.9953690e-02
  1.4547545e-04
  5.1340344e-04
 -2.8351594e-03
 -1.6183423e-02
 -4.8310659e-03
 -1.1875349e-02
  3.7963938e-03
  2.7191507e-02
 -1.6545553e-03
 -3.0882210e-03
 -3.8466908e-03
  5.0220038e-03
 -3.5201795e-03
  4.4467542e-03
  1.4763528e-02
 -1.2155643e-02
  1.1711642e-03
  2.7757199e-03
 -2.3714172e-04
  1.8497183e-03
 -7.8664357e-03
  1.4688445e-02
 -6.9696316e-03
 -2.0549453e-03
  9.8074833e-03
 -9.2148483e-03
  9.8510832e-03
  2.3102371e-03
  2.2632420e-02
  9.6018042e-04
  1.4062049e-02
 -1.6105792e-02
  1.9844897e-02
  7.1589253e-04
 -2.1558420e-03
  7.1020792e-03
 -1.7640066e-03
  2.4466964e-03
 -3.6366091e-03
 -2.1088885e-02
 -3.0123316e-02
  4.5946538e-03
 -5.0846818e-03
  5.2571832e-03
 -5.7119704e-03
 -2.6402833e-02
 -3.4668709e-03
  5.0394749e-03
  1.1849367e-03
  7.9593798e-03
 -3.2851610e-02
  2.0996165e-03
 -7.9367757e-03
 -1.5499782e-02
  5.4354977e-04
 -1.9816309e-02
 -4.5764395e-03
 -5.9827305e-03
  1.4104920e-02
 -8.6718341e-03
 -6.3493853e-03
  1.0403716e-02
  6.9070864e-03
  3.3752795e-02
 -3.5675210e-03
  2.1956062e-02
  5.6761340e-03
  4.2491700e-03
  1.3016833e-02
  7.5065307e-03
 -1.4163973e-02
 -3.1885348e-02
  5.8639701e-04
 -2.4718184e-02
 -2.5859071e-02
 -5.8126515e-03
 -6.4220387e-03
 -7.3989592e-03
 -1.8352460e-02
 -1.6753538e-02
 -1.5834827e-02
  2.3082122e-02
 -2.2484887e-02
 -5.2343248e-03
  1.7970239e-03
  7.6293768e-03
  8.2647763e-03
 -5.0987964e-03
 -7.0753717e-03
  7.0810062e-03
 -1.4429472e-02
  9.2330100e-03
 -1.8787285e-02
 -3.7123551e-04
 -1.7868465e-02
 -1.5566240e-03
 -1.0885375e-02
 -6.3480795e-03
 -7.2135078e-03
  3.2831130e-03
  1.3100098e-02
 -1.3543787e-02
 -6.0374574e-03
 -4.6890058e-02
  1.2985554e-02
  1.1828561e-02
 -5.3305640e-03
  6.9437409e-03
 -1.5054762e-02
 -2.8711660e-03
  3.9110496e-03
  8.7372288e-03
 -6.1139907e-03
  7.2646342e-02
  2.3834065e-02
  1.5684506e-02
  1.1460181e-02
  2.2056160e-02
  1.8379791e-02
 -1.3584356e-01
  1.3766358e-02
 -2.6741233e-02
  3.0769459e-03
 -4.8475671e-03
 -3.7356960e-03
 -1.8999934e-02
 -1.0460539e-02
  1.2335476e-02
  1.0353526e-03
 -2.6396546e-03
  2.0332042e-02
  1.3534413e-03
  1.2905492e-02
  4.2663436e-02
 -9.8210061e-03
  1.0148098e-02
  8.5206972e-03
 -1.3683580e-02
  1.1377846e-03
  6.9383410e-04
 -9.5746638e-03
 -6.1367592e-03
 -1.5238605e-02
 -4.4746217e-03
  2.8619641e-02
  1.1683143e-03
  3.4525758e-03
 -1.8453554e-03
  1.6859097e-02
  1.1002959e-02
 -1.2785627e-03
 -5.1119379e-03
 -3.0545751e-04
 -2.7901584e-02
 -9.0421373e-03
 -2.7503926e-02
 -3.4797702e-02
  1.8475853e-02
  1.8626705e-02
  8.5956900e-04
  1.1432686e-02
 -1.3191561e-02
 -6.7259819e-04
 -4.6157312e-02
  5.5676466e-03
  2.2630639e-02
 -1.0629243e-02
 -2.8736657e-03
 -7.8004686e-04
  4.3082708e-03
  2.6829399e-02
  2.1309440e-03
  5.2677137e-03
 -3.4290735e-02
  1.2072635e-02
 -1.2085891e-02
  3.7309718e-03
 -6.7619090e-03
 -1.2614516e-02
 -1.2382803e-03
 -3.1194403e-03
 -6.8252552e-03
 -1.5329106e-02
 -7.5694579e-03
 -6.6310917e-03
 -2.2116080e-02
 -1.6962269e-02
  8.7481700e-03
  3.3089824e-03
 -2.2476293e-02
  1.3914241e-02
  2.2132639e-02
  7.2268713e-03
  3.4083859e-03
 -2.4577292e-02
  1.7104610e-03
  2.9721169e-03
  1.2750309e-02
  1.5658621e-02
 -4.7871715e-04
 -3.2489940e-03
  2.0916887e-02
 -4.2265899e-02
 -1.5548651e-01
 -3.8803779e-03
  1.6045801e-03
  1.9250898e-02
  2.3836976e-02
 -3.6379085e-03
 -9.4389316e-04
  2.2885713e-03
 -2.3080451e-02
 -4.4360477e-03
  1.2291308e-02
  1.8204020e-02
 -3.5017331e-03
 -5.1013357e-03
 -8.8922344e-03
  4.0724028e-02
 -8.1769805e-03
  2.4209280e-02
 -1.3770634e-02
  7.7421558e-03
  2.0907817e-03
 -8.2870899e-03
 -2.8593377e-03
 -9.3674827e-03
  1.3560700e-02
  2.4093762e-02
 -2.8486706e-03
  2.0244236e-03
  4.8155342e-03
  6.3657975e-03
  1.0742261e-02
  3.4997381e-02
  3.4661337e-03
 -5.0784936e-03
 -5.3582271e-03
 -8.1510888e-03
  2.8010115e-02
 -4.0878872e-03
  9.3096504e-03
 -8.4554702e-03
  4.0643271e-03
  7.7855955e-03
  1.9409144e-02
 -1.1739880e-02
  1.3258363e-03
 -3.3027175e-04
  2.4362056e-02
 -6.6913352e-03
 -3.6629947e-04
  4.7168531e-03
  7.4062324e-03
  2.4930511e-02
 -6.2479789e-04
  7.8375498e-03
  2.5202271e-02
 -2.2092681e-02
 -9.2439819e-03
 -2.6899849e-03
  3.4903097e-03
 -6.4367434e-04
 -1.0189413e-02
  3.9353664e-03
 -1.1532352e-02
  6.5487679e-03
  4.2235842e-03
  2.0678111e-03
  3.7156120e-02
 -1.2089909e-03
  5.8944256e-04
  1.3148972e-02
 -9.2591587e-03
  2.6671784e-02
  5.6603048e-03
  3.1210296e-02
  1.3318223e-02
 -4.7072307e-03
  1.2325486e-03
 -1.3249598e-02
  1.2668300e-02
 -4.2873155e-03
  5.8069252e-03
  1.4531310e-02
 -1.4237159e-02
 -1.3960553e-02
 -3.0738272e-04
 -5.5943718e-03
 -6.1943550e-03
  1.1593732e-03
 -9.0577984e-03
 -5.7059590e-02
 -1.3827643e-03
 -2.4785550e-02
 -8.2684597e-03
  1.3970127e-02
 -9.1949636e-03
  8.0384417e-03
  1.2041607e-02
  1.9449713e-04
  1.7094377e-02
  8.5042411e-04
  1.3187770e-03
 -5.3035119e-03
 -3.5396863e-02
 -2.7741392e-03
 -1.4471574e-02
 -1.3527151e-03
  7.3330256e-04
 -1.4732338e-02
 -2.7054600e-02
  2.5795503e-03
 -2.8845454e-02
  5.2448916e-03
 -2.9095419e-02
  3.2079315e-03
  4.6708821e-03
  3.0428891e-03
  9.5681148e-03
  1.1707360e-02
  8.5822986e-03
  4.3739891e-03
 -1.6998375e-02
 -6.1234473e-03
  7.1696430e-03
 -2.1782679e-02
 -1.9965323e-02
  1.1982969e-02
 -5.2855822e-04
  1.9006500e-03
 -1.3838478e-02
 -2.9910332e-02
 -6.9557182e-03
  1.4732257e-02
 -1.2032758e-02
  2.4968518e-02
  1.1129134e-02
 -5.2352617e-03
 -1.3235834e-02
  1.5484360e-03
  3.6202334e-03
 -8.6098116e-05
 -5.5366773e-03
  2.6796866e-02
  5.9660864e-03
  4.3781269e-03
  2.1554584e-02
  1.1134751e-02
 -1.1385909e-02
 -3.2784943e-02
 -6.4832806e-03
  1.0218780e-02
  6.7834863e-03
  5.5112527e-03
 -1.1021890e-02
 -2.1782765e-02
  1.3012578e-03
  8.6096339e-03
 -5.5169495e-04
  9.9252267e-03
  4.7295573e-03
  2.0574590e-02
  9.6080638e-03
  1.8710600e-03
 -8.3088698e-03
  1.8230621e-02
 -7.3327008e-03
 -1.5487104e-02
  1.5022866e-03
  1.7822815e-02
 -1.2871384e-02
 -5.4683909e-03
 -1.6573429e-02
 -2.9336352e-02
  1.6483119e-02
  7.3213000e-03
  1.7567535e-03
  1.5571568e-03
  1.5163763e-02
  5.1901741e-03
 -4.7530872e-03
 -1.0955739e-03
  1.0278067e-02
 -2.3463555e-03
 -2.2078771e-02
  6.7531568e-04
 -1.5042979e-02
  1.3186304e-02
 -1.9002880e-03
 -1.3960404e-03
  1.3280136e-02
  2.9036375e-03
  2.7731907e-02
  6.3307635e-03
 -4.0764366e-03
  1.1390410e-02
 -1.6669745e-02
 -8.5811960e-03
 -5.3678155e-03
 -2.1605000e-03
 -1.1654142e-02
  1.5496484e-02
  1.2259284e-02
 -3.6371199e-03
  4.5837141e-03
  1.1535113e-03
 -1.7320910e-02
 -3.4233945e-04
 -8.7276967e-03
  1.1424231e-02
 -2.6546435e-02
 -7.2292173e-03
  1.2678899e-02
 -1.6382661e-02
 -4.9455110e-02
 -3.6774640e-04
  3.2400580e-03
  3.6532553e-03
  1.2678879e-01
  1.3712133e-02
  1.0961066e-02
  2.8358502e-02
  1.7576007e-02
  9.3703875e-03
 -1.8083531e-02
 -1.9944245e-03
 -1.8595520e-02
 -1.1051165e-02
  1.8395143e-02
  4.8315493e-04
  5.9023225e-03
  2.5993376e-03
  5.4010763e-03
 -3.6571703e-03
 -6.4717219e-03
  7.1991249e-03
  7.0746648e-03
 -3.8388142e-05
 -2.6329965e-03
  4.8157927e-02
 -1.0062324e-02
 -2.5798257e-03
 -1.5530623e-02
  2.5404808e-03
  5.3838687e-03
 -1.1733922e-03
  4.0660314e-03
  1.8273674e-02
 -1.6796893e-02
  1.1717405e-02
 -3.0692453e-03
  2.1467015e-02
 -9.5107332e-03
  1.3750222e-02
  3.5300213e-03
 -7.8870058e-03
  7.0349746e-03
  1.1688713e-02
  4.9849495e-02
 -3.5293945e-03
 -1.5933555e-02
  1.3628380e-02
  2.9213674e-02
  5.8238227e-03
 -9.7155216e-04
  1.9396918e-02
  1.0646436e-02
  1.1098743e-03
  9.8880590e-04
 -1.7443245e-04
  2.0752479e-03
  8.3632730e-03
 -1.1981538e-02
 -3.0136479e-03
  1.8513737e-02
 -9.3670888e-03
  3.6850594e-02
 -2.7035989e-03
  2.3869409e-03
 -2.1770382e-02
 -3.9458028e-03
  8.8722976e-03
 -1.3183118e-04
 -3.9977976e-03
  1.1433378e-03
  1.6459994e-02
  1.1801866e-02
  6.3887141e-03
 -4.5095980e-03
 -4.1013788e-03
 -1.5184193e-02
  1.2319386e-02
 -1.6968721e-03
 -3.2026069e-03
 -2.3058807e-02
 -2.0829396e-02
  3.8045594e-03
  1.7575610e-02
 -1.0598359e-02
  2.4439171e-02
  8.7129734e-03
 -2.1733050e-03
 -6.5113087e-03
 -1.7678872e-02
 -1.1213903e-02
  7.6621245e-03
  1.0212101e-02
  2.7304376e-03
 -1.3808418e-02
  2.0597344e-02
  9.0900790e-03
 -7.9950580e-04
 -2.8300058e-02
  3.1217502e-03
  4.0897273e-04
 -1.5267260e-02
  2.6700841e-03
  1.1585020e-02
 -8.5689276e-03
  8.4451213e-03
  6.1049908e-03
  3.6817282e-03
 -6.8942788e-03
 -8.0867827e-02
  5.0192033e-03
  1.0766905e-02
 -4.1920017e-03
 -3.1206631e-03
  4.1245509e-02
 -1.1706056e-02
  5.0410288e-03
 -3.0593700e-03
 -2.4369222e-03
 -3.9094292e-02
 -1.2530970e-02
  3.5963296e-03
 -5.7337559e-03
  1.0387247e-01
  5.0622708e-01
  2.2909863e-02
 -1.0390913e-02
 -4.0207114e-03
 -9.3173571e-03
 -8.7418704e-04
  1.8398093e-04
 -5.7585724e-02
 -8.5701626e-03
 -2.4527153e-02
  6.0369115e-04
  3.5288495e-03
 -2.0395219e-02
  4.9364252e-04
 -4.0080767e-02
 -1.8103688e-03
 -1.1125692e-02
  1.3928587e-03
 -1.1989208e-02
  2.0189441e-03
  1.5475776e-02
  2.3721391e-02
  2.2325953e-02
 -9.6198870e-03
  8.3048716e-03
  8.6659770e-03
 -1.3836983e-03
 -1.0608175e-02
 -2.2614780e-03
 -3.2517554e-03
 -3.3417139e-03
  2.3817359e-02
 -1.7297200e-03
  7.7760429e-03
  1.3105385e-02
  1.6857430e-02
 -3.0851087e-03
 -2.3888160e-02
  5.0392286e-03
 -2.6088918e-02
 -2.3252968e-02
  9.3109242e-04
  7.8286766e-04
  3.9371075e-03
 -1.6204680e-03
  5.8893119e-03
  4.3556946e-03
  1.6770763e-02
 -2.6590750e-02
  1.1404715e-02
 -5.8082156e-03
  3.2437246e-02
  6.4373347e-03
 -2.0512410e-03
 -1.0314460e-03
 -1.1874292e-02
  8.1837159e-03
 -2.5086463e-03
 -3.7901935e-03
  7.9607265e-03
 -3.6347425e-03
  1.4880446e-03
 -1.8325876e-03
 -9.1285130e-04
 -1.9848784e-02
 -2.0779474e-02
  2.3850317e-03
  3.4876645e-02
 -1.3918843e-02
 -4.3175234e-03
 -7.8367628e-03
  8.2913693e-03
  8.4463852e-03
  2.9534109e-02
 -7.7336724e-03
  4.6892515e-03
  1.0476919e-02
  9.2549874e-03
  4.2208512e-03
  7.5648963e-03
 -5.7159648e-03
  2.3409789e-03
 -4.4319224e-02
 -2.6169908e-03
 -4.6203546e-03
 -3.1855598e-03
  2.2909699e-02
 -5.5975839e-03
 -2.3345513e-02
  6.3842954e-04
 -1.5572003e-02
 -3.3783159e-04
  1.3930354e-02
  3.2854311e-02
  1.9777461e-03
 -3.2720368e-03
  5.2816041e-02
 -3.5002085e-03
  5.6359605e-03
 -1.3080799e-03
 -7.9825968e-03
  2.3020018e-02
 -1.2062744e-04
 -4.1768916e-02
 -2.3951272e-02
  1.4452962e-02
  2.6593337e-02
  1.8150209e-03
  9.4357543e-03
  8.3961198e-03
 -6.4013465e-03
  1.4120983e-02
 -1.3114574e-02
  5.9671733e-03
  2.8141292e-03
  3.8039826e-02
 -3.1403310e-03
 -4.4739194e-02
  1.6824957e-03
 -2.6391968e-03
 -4.8327772e-03
  1.2051167e-02
 -1.0712487e-02
  4.3659983e-03
 -5.6908693e-04
 -2.3544643e-02
  3.1863409e-03
  1.7013293e-02
 -5.8780750e-03
 -7.9722935e-03
 -5.9625255e-03
 -7.8826095e-04
  3.7967181e-03
  7.6537244e-03
  1.2052275e+00
  1.7444597e-01
 -3.4924403e-02
  8.1560146e-03
 -2.5459980e-03
 -3.1798948e-02
 -1.3018491e-02
 -2.1537328e-02
  4.7033310e-02
 -1.6478572e-02
 -1.1599595e-02
  1.5224254e-02
  5.1706638e-02
 -5.5238176e-03
 -3.0290423e-04
  3.2315967e-03
  1.8185275e-02
 -4.7632460e-03
  1.8054919e-03
  2.6438733e-05
  4.2662825e-03
  3.5058060e-03
 -9.4246216e-02
 -1.0221811e-03
 -1.7923996e-03
  7.7834600e-03
 -4.0066260e-01
  8.4046610e-03
 -9.1409944e-03
 -1.4811441e-03
  9.3460027e-03
  4.1039255e-03
 -5.8362675e-03
  2.2777248e-02
  5.7098265e-03
 -5.9883511e-03
  1.5005885e-02
  4.2799162e-03
  3.7546661e-02
 -5.5863648e-03
 -1.7833740e-02
  3.4660041e-02
 -5.0086915e-03
 -3.0742337e-03
 -1.1045508e-03
  6.1847229e-04
  7.9812678e-03
 -8.8942554e-03
  2.5236362e-03
  9.0716767e-01
  1.2790270e-02
  3.8477324e-03
 -5.5599591e-04
 -1.5319942e-02
  1.4818044e-02
  2.1144024e-03
  1.5435868e-02
 -2.3391487e-02
 -4.0788294e-04
 -8.8598318e-03
 -2.9498052e-02
  4.8091404e-02
  1.9784287e-02
  1.9238831e-02
 -1.7747553e-02
  1.6312964e-02
  2.6097219e-03
  4.8005311e-03
 -3.1055486e-02
  3.4756316e-03
  1.2502242e-02
  1.2759158e-02
 -2.4409189e-03
  4.3262318e-03
  6.8952404e-03
  1.1822613e-02
 -9.1341435e-04
 -9.5888966e-04
  3.4556139e-04
  3.0443780e-02
  2.2124900e-03
 -1.4459023e-02
 -1.7104877e-02
  4.3849954e-03
  2.0539220e-03
 -6.4537143e-03
  2.2782141e-03
 -5.5431011e-03
 -2.7693735e-02
  1.0750477e-04
  2.0478280e-02
 -2.5657544e-02
 -1.3120467e-02
  3.4151480e-01
 -1.1886256e-03
  7.2143092e-03
 -4.0481944e-04
  9.5327804e-03
  8.6977724e-03
 -1.8114351e-03
 -6.2814383e-03
  3.7997721e-03
 -3.1237500e-03
 -1.4243145e-03
  6.2001254e-03
 -1.2623989e-02
 -1.4249895e-03
  2.3252114e-03
 -6.3510932e-02
 -2.7005700e-04
 -4.9419501e-03
 -6.9527263e-03
 -1.1897011e-03
 -3.9479071e-03
  9.5644435e-03
  2.1337559e-02
 -2.0492743e-03
 -3.0733870e-02
  7.4414802e-03
  3.1956283e-03
 -4.1987170e-03
 -4.4930723e-02
 -2.7876255e-01
  2.8805280e-01
 -2.0857118e-01
 -4.0301140e-03
 -1.5097527e-02
  1.8089512e-02
 -7.3177826e-01
  8.3619542e-03
  3.7557827e-03
  2.1432132e-02
 -1.3384087e-03
  3.7147170e-01
 -8.3467085e-03
  3.4389035e-03
  5.2461348e-04
 -1.0212032e-02
 -7.4913687e-01
  3.4566389e-03
 -1.2441263e-02
 -2.4350763e-03
 -2.7920664e-03
  2.0153856e-01
 -3.6902912e-04
  2.9161062e-02
 -1.6044401e-02
 -2.7239399e-02
 -1.2228660e-03
 -2.8285656e-02
  1.5958530e-04
 -1.6959140e-02
 -2.6464967e-02
  6.0946522e-03
  6.1189709e-04
  1.7026292e-02
 -9.7538559e-03
  1.5161847e-03
  8.7664267e-03
  9.6104471e-03
 -8.2583213e-03
  1.1182951e-02
 -7.8526977e-03
 -8.2941502e-03
 -9.7347088e-03
 -1.5474852e-03
 -1.9997383e-02
 -1.2532224e-02
 -1.1276652e-02
  5.4473481e-03
  2.5482735e-02
 -1.1913212e-02
 -1.5505391e-02
  2.0566438e-03
 -1.4928484e-03
  2.6500740e-03
  2.6858250e-02
 -4.5841550e-03
 -1.1831768e-03
 -7.3832949e-03
  1.7416947e-02
 -2.1989357e-03
  8.8752434e-03
 -4.7113784e-04
 -1.6175691e-03
 -1.3348768e-02
  8.1291962e-03
  8.7833423e-03
 -2.0342512e-02
  1.4520930e-03
 -2.3912465e-02
 -9.0757208e-03
 -8.1192870e-03
 -8.2598813e-03
  7.4029574e-03
  2.6361190e-03
  1.2357521e-02
 -1.3867714e-02
  1.1168000e-04
  8.1121638e-02
  5.6466105e-04
 -4.1132392e-03
 -5.3773131e-03
  8.7318243e-03
 -7.4126199e-03
 -1.0715123e-02
 -1.6398726e-02
  7.3611410e-03
 -1.5208015e-02
  2.1781316e-03
  2.9243967e-03
 -1.1176210e-02
  2.2000253e-02
  4.3188515e-03
  1.1121872e-02
  2.0658515e-02
  9.6639078e-03
  2.7655514e-02
 -1.3420505e-02
 -2.1605695e-02
  3.1830572e-02
  1.0554414e-02
 -2.1557625e-02
 -2.3518840e-02
 -1.0466808e-02
  1.0422518e-02
  1.3022684e-02
  1.0511862e-02
  1.2782090e-02
 -5.9324554e-03
  3.3713579e-03
 -4.4991993e-03
 -5.7585449e-03
 -1.9352804e-03
  2.4632987e-02
  5.0643464e-03
 -2.5433428e-03
 -4.0637259e-03
 -1.0149324e-02
 -8.8056847e-03
 -1.3570371e-02
 -1.0442899e-03
 -1.3407469e-03
 -1.9641481e-02
 -1.6579319e-02
 -8.7843686e-03
  2.5596011e-02
  1.5840881e-02
 -1.3499660e-02
 -1.9498363e-02
 -3.3118287e-03
  1.7927242e-02
 -9.5862191e-04
 -1.1749732e-02
 -4.0228092e-03
  1.8955387e-02
 -1.1382960e-02
  2.0181143e-03
 -7.6622167e-03
  1.5250806e-02
  1.2480428e-02
 -4.5342445e-03
 -1.1584839e-02
  1.9351353e-03
 -2.7183180e-03
 -3.5216872e-04
  1.2516629e-02
  2.1883767e-02
  1.3927322e-02
 -3.3011818e-03
  3.6536803e-04
  4.0381672e-03
 -1.8531399e-02
 -2.6560293e-03
 -5.0916658e-03
 -1.5842255e-02
 -9.1746375e-03
 -9.9076312e-03
 -6.2060244e-03
 -2.1047818e-03
  2.0029511e-02
  1.8049367e-02
 -1.2391431e-02
 -4.2972830e-03
  1.1937661e-02
 -3.1699684e-02
  2.2468343e-02
  2.8878573e-02
  1.6369700e-03
 -5.9575704e-03
  6.2267739e-02
 -2.2009553e-02
  4.1291751e-03
 -5.0532939e-03
  6.0655773e-03
 -9.8772934e-03
 -1.9974958e-03
  4.6029403e-03
 -3.4436537e-03
  1.2238519e-02
  8.3216988e-03
  1.8606652e-02
  4.1758260e-03
  1.7929241e-02
 -2.1504534e-02
  1.9323103e-02
  6.6525545e-03
  4.2636629e-02
  8.3365701e-03
 -1.3170298e-02
  6.4541590e-03
  5.8766664e-03
 -5.7292739e-03
 -6.0435096e-03
 -1.5942760e-02
 -3.2655464e-03
 -5.1739984e-03
  2.9986000e-02
  3.1499889e-02
  1.4138076e-03
  1.0470389e-02
 -9.4635133e-03
 -2.8004512e-02
 -8.8917846e-03
  1.1487094e-02
 -1.3463716e-02
  8.1285536e-03
  1.9828048e-02
 -4.8468116e-04
 -8.4939264e-03
 -1.2865503e-02
 -2.3089109e-02
  9.7898878e-03
 -3.6093211e-03
  5.6581632e-03
  1.9080361e-03
  2.1322260e-02
 -1.1077207e-02
  1.6741633e-02
  1.0255240e-02
  8.4275510e-03
 -2.2082597e-02
  8.8283146e-04
 -7.3840767e-03
  2.7982080e-02
  5.9885788e-03
 -1.1058453e-02
 -2.8221704e-02
  1.9486636e-02
 -8.6291973e-03
 -1.7170373e-02
 -9.3308976e-03
  9.3587497e-03
 -1.8877821e-03
  3.6601229e-03
 -1.2050088e-02
 -3.4146704e-02
  1.5515733e-03
  1.7702756e-03
  3.8856284e-03
 -1.7014774e-02
 -4.5402260e-03
 -6.8564839e-03
 -5.7069366e-03
 -1.1571307e-02
  3.4271968e-03
  2.7691310e-03
  3.2010279e-03
 -4.0243319e-03
 -5.9850803e-03
  2.7307504e-04
 -1.6372940e-02
 -9.7330417e-03
  2.8013002e-02
  2.0157991e-02
 -1.1487431e-02
 -8.9549758e-03
 -6.0003730e-03
 -1.2632255e-02
 -1.1625126e-02
 -5.6306971e-03
  1.0862325e-02
 -3.5700845e-03
  8.0152778e-03
  1.4876741e-02
  7.6570017e-03
 -3.9117620e-03
 -4.1245674e-03
 -7.6799717e-04
 -1.0581116e-02
  1.0844208e-02
  2.3375875e-03
  8.5169006e-05
 -4.1419659e-03
 -4.1368674e-03
  9.9405292e-03
  2.2611894e-02
 -1.1720762e-03
 -1.1450253e-02
 -3.5066695e-03
  2.8106812e-02
 -2.0533932e-02
 -1.0293475e-02
  9.0300059e-03
  1.5830541e-02
 -1.0531750e-02
 -5.1262233e-02
  7.4018462e-04
 -5.6693060e-03
  6.4462973e-03
 -1.3641519e-03
  1.4287134e-03
 -1.5733272e-02
 -6.5183938e-03
 -2.7550238e-03
 -8.8517129e-04
  1.3228185e-02
 -2.7341288e-04
 -3.1230366e-02
  5.0346223e-03
 -3.2910916e-03
 -7.0977737e-03
  2.7010823e-02
 -3.8615376e-04
 -2.0707581e-02
 -4.7462163e-03
  4.5058979e-03
 -2.0350059e-03
 -3.3599017e-03
  5.4936050e-03
  2.3264093e-03
  6.6232001e-03
 -3.0363365e-03
 -1.5040843e-02
  1.6237674e-03
  7.7202581e-03
 -6.0429326e-03
 -8.3860951e-03
 -2.7245400e-03
  1.6764466e-02
  5.6633134e-03
 -1.3005675e-02
  1.1151107e-02
 -9.6128974e-03
 -1.4711414e-03
  1.5117355e-02
  2.4285184e-03
 -2.8236158e-02
  1.3149373e-02
 -1.1341758e-02
  6.3994569e-03
 -1.9202936e-02
  1.3592287e-02
 -5.7087778e-03
 -3.6228339e-03
  1.6590066e-03
  5.1188301e-03
  3.1358297e-03
 -4.2320088e-02
 -5.0633922e-03
 -5.3019649e-03
  1.6496144e-02
  1.8073356e-03
 -6.4113867e-03
 -1.0421637e-02
 -2.1298882e-02
  2.3156991e-03
 -1.9284757e-02
 -2.1651190e-02
 -5.5893064e-03
 -1.7720973e-02
 -3.2078375e-03
  6.1202669e-03
 -1.6779337e-02
 -3.5644199e-03
 -4.9233168e-02
  3.1502482e-02
 -2.1134797e-02
 -1.2178331e-03
  2.6845443e-03
  1.3043235e-02
 -2.9046198e-03
  1.8589526e-03
 -9.2672193e-03
  5.4678810e-03
  2.9658042e-03
 -1.8487219e-02
 -1.2641191e-02
  1.5061976e-01
  7.3840264e-03
  1.0135627e-02
  8.2617356e-03
  7.7234162e-03
 -8.4076770e-02
 -2.0383297e-02
  1.2706924e-04
  2.3468286e-03
  1.1952667e-03
  1.7850924e-01
  1.0732319e-02
  1.4348466e-02
  3.1498333e-03
 -8.2249148e-03
 -5.6896165e-02
  9.4321389e-03
  3.2498304e-02
  1.3050677e-02
  8.1950478e-04
 -2.0572668e-02
 -6.9541368e-04
 -1.1130921e-02
  3.5131544e-02
  1.8647570e-02
 -1.9994795e-03
  1.1997487e-02
  4.9568713e-03
  1.9631527e-02
 -3.5997226e-03
 -1.7238148e-02
 -2.0746564e-02
  1.2426999e-02
  2.2558364e-04
 -4.8684310e-03
  8.6456384e-06
  2.8455267e-03
  3.6902279e-02
 -1.2842902e-03
 -9.4240298e-03
 -2.0910613e-02
 -1.4228935e-02
 -2.5024343e-02
  6.7193746e-03
 -3.0689253e-02
  2.8401751e-03
  2.7784806e-02
 -3.9754399e-05
 -9.3255270e-01
  4.2263921e-03
  9.3396595e-03
 -8.1192357e-03
 -2.2504386e-02
 -2.8008111e-02
  5.7932427e-03
 -6.6655637e-03
 -6.6085189e-04
 -2.5153847e-02
 -2.4503462e-03
  3.1407920e-04
  1.7037977e-02
  2.8409711e-03
 -2.8894634e-03
 -1.2073991e-02
  2.3925584e-02
  3.1043917e-03
  8.0273934e-03
 -3.4760267e-02
 -1.9233130e-03
 -9.3341414e-03
 -7.2900625e-03
  3.2036852e-03
  1.1460931e-02
  3.8268554e-03
 -3.9298469e-03
  1.3517639e-02
 -1.7987501e-02
  6.2784180e-05
  3.4627251e-02
 -1.2731186e-02
  6.8232319e-03
 -9.5919752e-04
  1.8661091e-02
  9.0655647e-03
 -1.1365001e-02
 -1.0267657e-02
 -1.7609186e-02
  1.1069797e-02
 -7.5261644e-03
 -2.4769234e-02
  9.8831449e-03
  9.8259868e-03
  3.3467919e-02
  2.0061634e-02
 -1.1506790e-02
 -2.7914299e-03
  1.3314837e-02
 -1.9282432e-02
  1.1641023e-02
  4.3702619e-03
  9.3817915e-04
  1.0753056e-02
 -3.6251617e-03
  5.7767211e-03
  7.8963665e-03
  1.1241216e-03
 -3.1160882e-02
  8.0100736e-03
 -1.5205111e-02
  1.1370985e-02
  3.8479920e-03
 -7.8043616e-03
 -1.0141558e-02
 -1.4206489e-02
  7.4610752e-03
 -4.6406575e-02
 -3.0580387e-03
  2.3715202e-02
 -5.9034252e-03
  1.4814069e-02
  1.3330518e-01
 -7.3399665e-03
  1.3048096e-02
 -1.1675584e-02
  4.9520065e-03
 -1.0239082e-01
  4.6038460e-03
 -6.6501861e-03
  2.1967484e-02
  8.0948295e-03
  1.7895979e-01
  3.4874699e-03
 -1.4894867e-02
 -1.2746613e-02
  4.7311774e-03
 -2.7238920e-02
  5.7726838e-03
 -8.5836668e-03
 -4.0897413e-04
 -4.8489366e-03
  1.9903274e-03
 -6.9043939e-03
  1.1367561e-02
  9.1471411e-03
  1.4698813e-02
  5.3223674e-03
  1.6365929e-04
 -1.3293040e-02
 -7.5808336e-04
 -1.1646435e-02
  4.3545626e-04
 -2.7251929e-02
  2.1465877e-03
  1.3055636e-03
  3.1478723e-04
  7.0898584e-03
 -8.8158930e-03
 -3.2546400e-04
 -9.2041111e-03
  7.7934559e-03
 -9.3564428e-03
 -3.6282171e-02
 -5.7108132e-03
  1.0028326e-02
  2.1144778e-02
 -6.4104917e-03
 -1.5501647e-02
 -2.4207931e-02
  1.7902639e-02
 -2.9704659e-03
  5.1075224e-02
  1.1236347e-03
  1.5549516e-02
 -2.1706004e-02
  2.3534445e-02
 -2.1223124e-02
 -5.0003640e-03
 -4.2509092e-03
  1.6352138e-02
  2.6433779e-02
 -6.3312124e-03
 -7.3583717e-03
  1.5104549e-02
  4.0878770e-03
  6.7744761e-05
  8.4787728e-03
 -3.5304788e-03
  7.2444318e-04
  5.0075194e-03
  5.2649057e-03
  1.0970919e-02
 -1.2726415e-02
 -1.0196406e-02
  7.4458318e-03
  1.5004572e-02
 -1.9701465e-03
  3.7556622e-02
 -3.2872438e-02
  3.7659179e-02
  2.0594285e-03
  7.1485951e-03
  2.2724321e-02
  2.2150405e-02
 -6.6584400e-03
  1.6209692e-02
 -2.6047304e-02
  3.0067816e-04
  8.8955928e-03
  1.4932015e-02
  2.3370482e-02
  2.5546486e-02
  1.7243822e-03
 -1.8357849e-02
  6.5112491e-03
  1.4602877e-02
  1.6984940e-02
  5.0339061e-03
 -2.3629155e-02
 -1.3450517e-02
 -2.0305889e-02
 -2.5136190e-02
 -1.4401403e-02
  3.6593541e-03
  1.5741954e-02
 -1.0415806e-02
 -6.6909404e-03
 -1.4873532e-02
  1.1867682e-02
  1.3981456e-02
 -7.0576561e-03
 -3.5665706e-03
  1.3546870e-02
 -3.4028719e-05
 -3.1669270e-02
 -1.6871188e-02
 -8.6666103e-03
 -3.2848287e-03
  1.4513265e-02
  4.9608370e-04
 -4.5433007e-03
 -1.1574180e-02
  9.4425911e-03
 -1.6067907e-02
  2.6196594e-04
  1.1575577e-03
  7.1411259e-03
  1.6558461e-02
 -2.0394519e-03
 -1.9796747e-04
  1.0493970e-02
  9.7263102e-05
  9.8033287e-03
  9.1186659e-03
 -9.7498717e-03
  1.1213988e-02
  4.1361013e-03
 -7.3530264e-03
 -2.5042413e-02
  3.6423947e-03
 -4.2877607e-03
  7.2446293e-03
  3.6625117e-02
 -5.6122518e-03
  3.2838229e-02
 -1.8361887e-02
  2.5153413e-02
 -2.9975798e-03
 -3.8091906e-03
 -8.4123953e-05
  1.9210238e-02
  9.8176906e-03
  8.9742914e-03
  2.2928726e-02
 -4.5367437e-03
 -1.4500694e-03
  2.2050911e-03
  3.3033441e-03
  6.0872105e-03
  1.6090772e-03
 -2.5551959e-03
  2.6783366e-03
 -3.0677575e-03
 -3.4376446e-03
  6.9607291e-03
 -4.5223772e-03
  8.0071194e-03
 -2.1441898e-03
 -1.2195492e-02
  9.3112327e-03
  1.9067355e-02
  4.4705532e-03
  3.8802594e-02
  1.8914899e-02
 -4.3356041e-03
 -2.0894684e-02
 -1.0471531e-02
 -8.2451608e-03
 -1.1823735e-02
 -8.4326575e-03
  1.1437701e-02
  5.5050654e-03
 -9.7674942e-03
 -6.3078925e-03
 -6.8393690e-03
 -1.0295417e-02
 -2.7884938e-02
 -3.1305775e-03
 -2.0882195e-02
 -8.4916400e-03
  6.6479167e-04
 -2.8845980e-03
  3.2029662e-03
  6.0430923e-03
  2.2434234e-03
  6.0045603e-03
 -1.4603352e-03
  2.2991708e-02
  5.6880121e-03
  1.8615929e-02
  1.0577715e-02
 -1.3791669e-02
  5.4163102e-04
  8.3354823e-03
  1.6002660e-03
  4.4583920e-03
 -2.0166477e-02
 -1.2699537e-02
 -1.0754416e-02
  1.9334426e-02
 -1.4467902e-02
  1.7576048e-02
  1.0245454e-02
 -2.0468079e-02
  7.8536087e-04
 -3.0670555e-03
  2.2761221e-03
 -3.6849193e-02
 -1.6602231e-02
 -1.0762168e-02
  2.1827016e-02
 -7.9694232e-03
 -2.9372559e-03
  6.3984399e-04
  9.1439085e-03
  7.0266640e-03
  1.3795125e-02
 -1.2719538e-02
  1.1439482e-02
 -1.7731143e-02
  1.3920835e-02
 -8.8335592e-03
  4.2393757e-03
 -8.7529402e-03
  3.0160004e-03
  1.5203753e-02
 -8.6052427e-03
  6.4506526e-03
  4.5456542e-03
 -4.6466510e-03
 -2.1811062e-02
 -1.3131012e-02
 -4.2897500e-03
  5.6540878e-03
 -1.3686779e-02
  1.5188876e-02
 -1.0890996e-02
 -1.5884107e-02
  6.3300091e-03
 -3.7506903e-03
 -1.5487712e-02
  8.2860344e-05
 -1.0920797e-02
  2.0955987e-03
 -2.6298422e-04
  3.7671197e-02
  8.9367507e-03
  1.5277439e-02
  6.7805457e-03
  1.3516071e-03
  1.1940145e-02
 -1.0024633e-02
  8.3835470e-03
 -1.4963397e-02
  1.1274157e-02
 -7.1097520e-04
  4.3888339e-03
 -2.7824381e-02
 -1.8084339e-03
 -4.9999431e-03
  4.4252258e-04
 -4.9480647e-03
  4.3309733e-02
  5.5905893e-03
  3.3492059e-03
  1.2673464e-02
  2.2816526e-02
 -1.2456301e-02
 -1.4729923e-02
  4.5233811e-03
  2.9823747e-03
  1.1438919e-02
  2.4260336e-03
  2.2543471e-02
 -6.9808322e-03
  3.9173313e-04
 -5.1394063e-03
  2.7704600e-02
 -1.3697887e-02
  1.2623968e-03
 -9.5198248e-03
 -1.4120041e-02
  8.2326019e-03
 -1.5800370e-02
 -2.4412356e-02
  3.5411378e-03
 -5.5879850e-02
  6.8942847e-04
 -1.2046748e-02
 -2.1590816e-02
 -8.0603678e-03
  6.9212645e-02
  9.2477072e-03
 -8.2125915e-03
 -3.8678355e-03
  6.4027151e-03
 -1.0721430e-04
 -2.4614049e-02
 -1.5378654e-03
  2.3190435e-03
  6.9201724e-03
  2.7942324e-02
  1.5636582e-02
 -1.3746602e-03
  8.1753923e-04
  6.1477367e-03
  9.3285292e-03
  4.5041949e-02
 -8.8346014e-03
  1.4866542e-02
 -1.6771898e-02
 -1.0973855e-02
  2.5468763e-02
 -2.8979503e-02
  4.1012857e-03
  1.2369745e-02
 -6.8354785e-02
  3.1835306e-03
 -2.5684515e-03
 -1.6347694e-03
 -3.5375941e-03
  1.1160373e-03
  1.7468681e-03
  1.5264876e-03
  8.1882430e-03
  1.0317252e-02
  2.3860102e-04
 -1.7989000e-02
 -1.5201267e-03
  7.9683065e-03
 -4.9290247e-03
  5.8987848e-03
  1.4407560e-02
  4.3806311e-02
 -1.3337588e-02
 -7.7366107e-03
  1.3319499e-02
 -4.6099788e-03
  1.2637585e-02
 -3.6467707e-03
 -6.9906511e-03
 -5.2792239e-03
  2.5240492e-02
 -8.4282935e-02
 -1.8457768e-02
 -2.6229278e-03
  1.2118028e+00
 -5.5256253e-03
  1.3680424e-02
 -8.9541897e-03
  1.9781623e-02
  4.1655492e-02
 -2.6668591e-05
  3.1903093e-03
  1.5689880e-02
  2.6333390e-04
  6.7644604e-03
 -4.1562382e-02
 -4.2890984e-01
 -2.0184261e-03
 -6.9354032e-03
 -1.5125392e-02
 -3.1193346e-01
  1.0570291e-03
  1.1093135e-02
  1.5007698e-03
 -7.5754779e-03
  1.1161657e-02
  4.3459204e-03
  9.7386539e-03
 -1.1742632e-02
 -8.7549100e-03
 -9.9011093e-02
  1.8258851e-02
  1.4874808e-02
  1.2919373e-03
 -3.7549660e-02
 -2.7200228e-03
  1.8259292e-03
  3.1058752e-04
 -4.5498181e-03
 -1.6387785e-02
 -5.3405872e-04
 -3.4953035e-05
  5.8887433e-02
 -1.8905155e-02
  3.5461299e-02
  2.2583714e-02
  1.8643664e-02
  1.6282591e-03
  8.0714584e-04
  6.1502331e-03
 -5.5174497e-03
 -2.4263938e-03
  9.4257705e-02
 -1.2465703e-02
  4.8625921e-03
  1.3481606e-02
  1.9406254e-03
  1.6772419e-02
  1.8822268e-02
 -3.6744393e-02
 -1.1619444e-02
 -1.4909586e-03
  8.1225289e-03
 -6.6658314e-03
  1.8495258e-02
  9.3116648e-03
 -9.8981112e-03
  9.7423093e-03
 -1.0570746e-04
  1.1610250e-02
 -4.5081275e-03
  1.5468318e-03
 -2.4727607e-02
 -9.2272996e-05
 -1.1127652e-02
 -1.8105040e-03
  7.3817128e-04
 -6.6917432e-03
 -1.3892178e-02
 -1.7468784e-02
 -4.5324978e-03
  2.0557374e-03
  3.3061482e-02
 -2.3833314e-04
 -8.3885081e-03
  5.4766829e-03
  2.0986367e-02
 -1.6088022e-02
 -8.2537177e-04
 -6.2491698e-03
 -1.6235184e-02
 -1.7150961e-01
 -6.3951784e-01
  5.0523823e-01
  2.6237783e-01
  1.0767444e-02
 -3.9246496e-02
 -5.9596109e-01
  1.7214144e-02
 -1.7555391e-02
  1.2968760e+00
 -2.6098643e-03
 -4.0055990e-01
 -3.9961565e-02
  1.0237575e-01
  3.9005280e-01
  1.3308028e+00
 -2.7578970e-02
  1.8092275e-02
 -6.9584986e-03
  1.0221289e-02
 -4.9729180e-02
 -6.5212233e-05
 -1.1834042e-02
  2.1104631e-03
 -1.2564899e-01
  2.2851627e-02
 -1.3571976e-02
 -1.0081018e-01
 -3.5663348e-02
  4.0421080e-02
 -1.4012444e-02
 -1.5523793e-02
 -2.7384448e-03
  1.4228334e-02
  2.1305557e-03
  1.2904063e-02
  3.5319898e-02
  4.1142451e-03
 -2.8415432e-02
 -9.3588261e-03
  3.2583050e-02
  5.9929197e-03
  9.1784699e-03
 -1.8845779e-03
  9.4564464e-03
 -4.1535152e-03
 -5.2300598e-03
  3.8650176e-03
 -7.3854234e-03
 -4.5993533e-02
  4.0560663e-03
 -1.0812474e-02
  3.2245205e-03
 -9.3280431e-03
 -8.3253713e-04
 -1.4576577e-03
 -9.5584625e-03
 -1.2394056e-02
 -2.9434545e-03
  1.1937038e-02
 -1.3162689e-02
  2.1961648e-02
 -8.0884816e-03
 -8.1663625e-03
 -3.4279886e-04
 -1.5855607e-04
  8.1051781e-04
  8.2213702e-03
  2.0806549e-02
  7.1466756e-03
 -3.3721894e-03
 -3.8041830e-02
  4.6621095e-02
 -6.6657029e-03
 -6.5063331e-03
  2.0868212e-02
 -7.4500586e-03
  2.0589535e-04
  2.2531666e-02
  1.9755561e-02
  3.1115150e-03
  5.7249736e-02
  8.4420498e-03
  3.7188776e-02
 -1.3663827e-02
 -1.8372150e-02
 -2.2585342e-02
 -1.0857217e-02
 -2.1651564e-02
  6.4465771e-03
 -3.6570248e-01
 -2.5427157e-01
 -5.4943502e-01
 -4.2335007e-01
  9.9000949e-01
 -4.4965118e-01
 -3.8073784e-01
 -7.4777001e-01
  8.6771679e-01
 -4.7362986e-01
 -5.1448411e-01
 -5.6790388e-01
 -5.1313180e-01
  5.8879125e-01
  2.8796655e-01
  8.8123411e-01
 -2.3856413e-01
 -2.8739369e-02
 -3.4650517e-01
  6.6783905e-01
 -3.9330831e-01
 -1.8378790e-01
 -9.9746324e-02
 -3.2567754e-05
  6.4139146e-01
  9.6722163e-02
  1.9305248e-02
 -6.0062891e-01
 -4.3822017e-02
  1.6887398e-01
  1.3069259e+00
  2.5361770e-01
 -5.9226757e-01
 -1.8708572e-01
 -6.1423596e-02
 -2.5461638e-01
 -4.3796938e-02
 -1.5971886e-01
  6.2028193e-01
 -2.6224270e-01
  7.6250321e-01
 -7.6258364e-03
  1.5702875e-01
  1.7456616e-01
 -1.0774024e+00
 -1.4546978e+00
 -8.8441080e-01
  8.9852117e-02
  2.9320870e-02
 -6.3272303e-01
 -2.1959534e+00
 -2.3220859e-01
 -2.8847405e-01
 -1.9320881e-01
 -9.7074234e-01
 -1.0241894e-01
 -3.4868363e-02
  6.8035878e-02
 -2.6191497e-02
 -1.7629849e-02
  1.7218580e-02
  8.6944895e-03
  1.3314788e-02
 -6.1566490e-03
  1.1067983e-02
 -7.4519329e-03
  1.1942316e-02
  1.5823386e-04
  9.0669440e-03
  4.9855380e-04
  3.1207537e-02
  5.7250941e-03
 -4.0317536e-03
 -1.2607150e-02
  3.3803813e-02
  3.8886417e-03
  5.2699246e-03
 -2.0244176e-02
 -7.4665477e-03
 -1.6624553e-02
  1.1272180e-02
 -6.3715563e-03
 -4.9548452e-03
  6.6196718e-03
 -2.1451241e-03
 -9.8589091e-03
  5.2019791e-03
  8.8937990e-03
  1.1959040e-02
 -1.1588170e-02
  9.0915263e-01
  6.2644470e-01
 -9.4443887e-01
  6.1429955e-02
 -5.1785821e-01
  8.5609558e-04
  5.9902787e-01
 -7.5349992e-04
 -3.6444366e-02
 -8.8755393e-01
  4.0094093e-03
  1.3555673e-01
  3.1092361e-02
 -2.1486923e-01
  6.3585997e-01
  5.6393027e-01
  7.3174256e-01
 -1.5310104e-01
  2.4172448e-02
  2.0451379e+00
  5.2967286e-01
  1.7825072e-01
  1.4148518e-02
 -7.4306298e-03
  2.5185568e-02
 -5.9239455e-03
 -3.4969565e-03
  1.0505857e-02
 -1.3654449e-02
 -1.9559354e-01
  5.6949455e-01
  7.1473401e-03
  3.2836157e-03
  3.7763317e-03
 -4.0479493e-03
 -1.4840252e-02
  1.9133081e-01
  1.1215053e-01
  2.9360009e-03
 -4.4509268e-01
  7.5433739e-03
  1.3012318e-01
  3.4403846e-02
 -1.1748582e-02
  3.7853641e-03
  5.8117956e-02
 -6.7422753e-03
  1.7972350e-02
  2.7615139e-02
 -4.4047229e-02
  5.5958730e-01
 -1.1594760e-03
  3.4414940e-02
 -2.1626789e-03
  1.3944357e-02
  1.0534100e-03
 -2.7757855e-03
 -4.5823520e-01
 -5.0681462e-03
 -7.2380877e-03
  2.0498578e-02
 -5.3690430e-03
  2.6304147e-01
 -1.4664390e-03
  1.0722728e-02
 -1.2181215e-02
  9.7784223e-03
  2.9251421e-02
  7.8612855e-03
  2.4846292e-04
  1.9297181e-02
  4.8646148e-02
  4.5353789e-03
 -6.1132360e-02
  2.9618907e-01
 -5.0783199e-01
  2.4756310e-03
  5.0501605e-03
  3.7323769e-02
 -1.6019495e-02
  5.6703025e-03
  2.2813091e-02
 -1.6760651e-02
  6.5171528e-03
  4.0678982e-02
 -2.1115891e-03
 -5.6712255e-03
 -2.2988787e-03
  2.0704929e-02
  1.6977677e-02
  6.0965470e-03
 -4.7463654e-03
  9.7124362e-03
  2.7916455e-03
  5.0682109e-03
  9.2378240e-03
 -2.0073807e-02
 -1.2237243e-03
  6.6017635e-02
 -1.4744529e-02
 -9.7735389e-04
 -7.7109127e-03
 -1.2345413e-02
  8.9153508e-03
 -2.6651626e-03
  7.0225447e-03
 -1.0435523e-02
 -9.3690993e-04
 -1.9771364e-02
  4.1325528e-02
  6.4232235e-04
 -1.0328699e-02
 -3.9936434e-02
  2.2414410e-02
  1.2106787e-02
  6.2260549e-03
  2.1666167e-02
 -6.5977480e-03
  6.2712245e-03
 -3.3354141e-02
  8.2605928e-03
  1.7495790e-02
  2.4181260e-03
 -9.3005048e-03
 -1.4848921e-02
  4.6748847e-02
  9.1640325e-04
 -9.9760597e-04
  4.1236579e-03
  1.1772385e-02
  2.5706096e-02
 -4.3357839e-03
  9.7299693e-03
  2.8520974e-03
  8.4248809e-03
 -2.5821935e-02
  1.1302846e-02
  6.1008953e-03
  1.9631188e-02
  1.5647127e-04
  2.0403476e-03
 -1.7177287e-02
 -1.5214558e-02
 -1.2105264e-02
 -1.2222156e-02
 -2.3141259e-02
  1.0899685e-02
  7.1310479e-04
  2.8679838e-02
  4.3430300e-03
 -4.3634782e-03
  3.7389298e-03
  2.0633142e-02
 -1.5105435e-02
  1.3577360e-04
  1.4451941e-02
  2.3831073e-02
 -2.6518810e-03
 -6.4298925e-03
  3.1924266e-02
  1.0420441e-03
 -1.5531488e-02
  1.3899493e-04
  2.3535317e-02
  7.4474732e-03
  1.9589713e-02
  2.0138286e-02
  6.3586500e-03
 -1.0621693e-02
 -2.3676092e-03
 -8.5506551e-03
  2.6996063e-02
 -9.2503466e-03
 -1.0344367e-02
 -8.9563085e-03
  1.8960084e-03
 -1.4803319e-03
 -2.6112018e-02
 -7.1016899e-03
  3.4882125e-02
  1.8492799e-02
 -4.1826358e-03
 -1.3047413e-02
 -5.2794828e-03
 -2.3356121e-02
  9.8408088e-03
  1.4479488e-02
 -3.3738956e-02
  5.3005712e-03
 -1.0663787e-02
  4.5242634e-02
 -2.2746185e-02
  5.2212600e-02
  6.1023878e-03
  7.8193430e-04
 -1.0513735e-02
  4.7340426e-03
  1.7590489e-04
 -7.6140609e-04
  2.7651263e-02
  4.2213164e-02
 -1.1251054e-03
  7.7087596e-02
  1.7593404e-02
  2.0672141e-02
  1.4701877e-02
  4.0991232e-03
 -2.5179195e-03
 -6.2906817e-03
  3.5657461e-03
  7.2220648e-03
 -1.4701363e-03
  2.7467193e-02
  9.9740941e-03
  9.4434302e-03
 -1.4222073e-03
  1.3508366e-02
  2.9969776e-02
 -9.0222750e-03
  5.1303967e-03
  7.6928171e-03
 -5.1676314e-03
  9.8309042e-03
 -4.7623646e-02
  1.7953347e-03
 -1.3809478e-02
 -2.6840713e-02
 -2.9530583e-03
  2.6239848e-02
 -9.6969139e-03
  1.3101347e-02
  6.1387476e-03
  2.5542267e-03
 -2.2096170e-02
 -1.5579762e-02
 -6.3396897e-03
  2.9400382e-02
  7.1359752e-03
 -1.5980355e-02
  2.4869486e-03
 -8.1319585e-03
 -6.0183793e-01
 -1.9288391e-01
 -1.1227018e+00
 -3.1912518e-01
 -1.6050953e-03
 -1.0250059e-02
  2.2177951e+00
  1.3056776e-02
  5.9015167e-01
  4.9275039e-03
  1.2594048e-02
 -1.3921536e-02
 -6.4278306e-03
 -9.5992964e-03
  7.3633594e-03
  4.2591775e-03
  2.0167127e-01
 -1.5043488e-02
  6.8784268e-03
 -3.3800706e-01
 -1.8410372e-05
 -3.9713759e-02
 -1.0452949e-02
 -2.0291344e-03
 -2.2155348e-02
  1.7472894e-03
 -9.4824303e-03
 -2.1393610e-02
 -3.2289274e-02
 -1.1632819e-01
 -1.1223637e-02
  3.3956470e-03
  9.9294737e-02
  6.7820302e-03
  5.1128017e-03
 -7.9503402e-02
  2.7949456e-03
  3.6427736e-02
  3.2790518e-01
 -7.1332671e-02
  9.7714469e-04
 -9.0779198e-05
 -4.0857904e-03
 -2.4837613e-01
 -4.2256209e-01
 -6.5617198e-03
 -1.4733289e-01
 -3.4758545e-02
 -6.5299451e-02
 -2.1842210e-02
 -1.8399168e-02
 -4.8052911e-03
 -5.0140545e-03
  4.2126854e-03
 -2.7144139e-05
  1.2874766e-02
 -1.5845405e-03
 -1.1311920e-02
 -2.2694219e-03
  3.8295686e-03
  9.1955112e-03
  3.6332782e-03
  4.1751960e-01
 -8.0137914e-03
 -6.1765532e-03
 -5.7309875e-03
 -5.2428981e-03
  1.1619753e-02
  7.4875532e-03
 -1.2275502e-03
 -1.1652682e-02
  1.3710590e-02
  3.8127324e-05
  4.7795441e-02
  1.6434349e-02
 -1.0209079e-03
  6.9686458e-03
  1.1213131e-02
 -3.6991917e-02
 -1.2973369e-03
  5.0461097e-03
 -2.9060286e-02
 -1.4068058e-02
  1.6952940e-03
 -2.7551521e-03
 -5.0616909e-02
 -7.7489287e-02
 -1.6114512e-02
 -4.4883778e-03
  1.5055485e-01
  8.1937446e-04
 -5.3792894e-01
 -2.3611182e-02
  8.2983766e-03
  2.1937754e-02
  3.5028213e-01
  3.2271314e-02
  3.3465945e-03
 -2.9502118e-01
  1.3663455e-02
 -1.8275814e-03
  7.9192058e-04
 -5.9223562e-03
  3.2483231e-02
  7.5972962e-01
  2.3485842e-01
  1.5165919e-02
  9.4251521e-03
  3.6763214e-02
  2.6740396e-01
  8.3170692e-03
  2.4484523e-02
 -1.3217913e-03
  1.1186174e-02
  1.6984485e-02
 -2.1316323e-02
  3.9309274e-02
  2.2875769e-02
 -2.9274721e-02
  1.5687815e+00
  6.1794136e-02
 -3.6803797e-01
  1.8503169e-02
  2.4550753e-02
 -1.1277732e+00
  1.4936539e+00
  4.8900971e-01
 -1.0330783e-01
 -4.5313749e-02
  2.0783016e-01
  1.2531949e+00
  1.2362448e-02
 -3.4605169e-01
  6.6535696e-02
 -6.6131431e-01
  4.5178005e-01
  2.2181621e-01
  9.5875040e-03
  7.7065074e-01
  1.6998901e+00
  2.1310741e-01
  2.2213209e-01
  2.0077305e-01
 -1.1802658e-01
 -3.3371446e-03
  3.0613165e-02
  4.7727246e-03
  4.1331016e-03
 -1.4153276e-01
 -1.5273780e-01
  1.3335787e-02
 -8.1215091e-03
  6.9994428e-03
 -1.3742352e-01
 -5.4336190e-02
 -4.3048301e-01
 -2.7344573e-01
  4.1771371e-02
  1.6256443e-01
  1.1543753e-02
 -8.3086282e-01
 -1.0938490e-01
  2.9790810e-01
 -2.2276711e-02
 -2.8362855e-01
 -3.0340937e-01
  1.7754227e-03
 -5.0586939e-02
  8.7213762e-02
 -5.3046775e-01
 -4.7671035e-02
 -2.0319442e-01
 -6.6782989e-02
 -1.2394248e-01
  4.0742058e-02
 -1.1881826e-02
 -7.0957534e-02
 -1.9657187e-02
  2.0860022e-01
 -1.0339926e-03
  3.2597808e-03
 -1.4798778e-01
 -4.1822337e-02
  4.4412002e-02
 -3.7588095e-03
  1.4157164e-02
 -2.1960282e-04
  1.5925230e-02
  8.8313799e-03
  1.9177729e-02
 -1.3545674e-02
  5.2521685e-03
  3.0696869e-02
  1.2185670e+00
  2.3416225e-02
 -3.7478216e-02
 -5.2985184e-02
  9.9917222e-03
 -5.4309007e-02
 -2.4966901e-02
 -1.0571055e-02
 -7.4467748e-01
 -2.7549913e-02
 -1.0032212e-02
 -5.8401778e-04
  5.3348891e-03
  1.3529608e-02
 -1.0300666e-02
  8.0594961e-03
 -3.4917721e-01
 -1.3656625e-02
  1.0063326e-01
  1.2924881e+00
 -1.4701251e-02
 -7.2741024e-03
  1.3405658e-02
 -4.3642623e-03
 -1.1432080e-02
  1.4370608e-01
 -1.6449162e-01
  8.7715592e-03
 -4.5868559e-03
 -1.0636861e-03
  4.9930830e-03
 -1.0324848e-01
 -3.3342256e-03
 -2.9231708e-02
 -2.3052886e-02
 -3.7290309e-02
 -2.0910149e-02
 -3.2185528e-02
 -2.0422086e-03
  6.0062718e-02
  1.0963966e-02
 -1.7394947e-02
  2.5026908e-02
 -5.8859855e-02
  6.3082748e-03
  3.1386330e-03
 -5.3641885e-03
  2.4489054e-01
  3.0551127e-01
 -2.6079786e-01
 -2.1566032e-02
 -7.4462998e-03
  5.0024056e-01
 -2.2024736e-03
 -1.0297954e-01
 -1.6056977e-02
 -2.2718627e-02
  3.9748006e-02
  8.1467368e-03
 -7.1841195e-02
  5.4950267e-01
  5.2546513e-01
  4.0799165e-01
  6.5613948e-03
  3.5882874e-03
  1.3417501e+00
  1.7027919e-01
  5.3827446e-02
  1.0018396e-03
 -6.6291210e-03
  1.5757440e-02
  2.1009162e-02
 -1.2955409e-02
  2.2325872e-02
  1.8900260e-02
 -9.6471421e-03
 -1.4786112e-01
  7.6753542e-02
  7.6499879e-01
 -1.5652455e-02
 -2.1426676e-01
 -7.9162650e-02
 -3.3637710e-02
  1.1239278e-02
  1.0794342e-03
 -7.9830447e-03
  2.0022085e-03
 -5.9691850e-02
  6.9234590e-03
  1.6857376e-02
  4.3886071e-01
  5.7308751e-01
 -2.1548197e-02
  1.5340978e-01
 -4.6045106e-02
  4.6244774e-02
 -5.3959295e-02
 -4.4617639e-03
 -1.8649921e-02
  2.9483167e-02
  7.1864633e-04
 -3.9233495e-03
  1.5891174e-02
 -3.9514513e-03
 -9.1415392e-03
  7.6680239e-03
 -1.5004142e-03
  5.1204907e-03
  1.2541453e-02
  7.1948580e-03
  2.4524055e-04
  1.2843120e-02
 -1.8059982e-02
  2.5794187e-04
  6.8254261e-03
 -9.9104168e-03
 -3.1973258e-02
 -9.5684705e-03
  1.7197490e-02
 -6.8727951e-03
  1.9077687e-02
 -1.6748894e-02
 -2.2752178e-03
  4.1517718e-03
 -1.6048778e-02
 -2.3006129e-03
 -8.9787465e-04
  1.0853267e-03
 -1.8276323e-03
 -1.0658412e-02
  3.1727854e-02
 -5.3318165e-02
 -1.8155819e-02
 -8.3343051e-03
 -1.6408287e-02
  3.3089824e-03
 -2.8301641e-02
 -1.1233040e-02
  8.0492214e-04
 -2.6232721e-03
  3.2408398e-03
  3.5972793e-02
  9.1381092e-03
 -1.9353564e-03
 -7.1724094e-03
 -4.4014533e-03
  1.8149192e-02
 -1.9280408e-03
 -1.3382652e-02
 -7.5737289e-03
 -7.1187234e-03
 -4.9145857e-04
  1.6121985e-04
  9.8139024e-04
  5.4204022e-03
 -5.5411044e-03
  2.4581779e-02
 -6.6764369e-03
 -1.9089412e-02
  2.8645147e-03
  5.5962853e-04
 -5.3969743e-03
  1.2900719e-02
 -9.6150180e-03
 -2.4206971e-03
 -2.7962282e-02
  1.4615796e-02
  6.7425957e-03
 -1.4945522e-02
 -2.8416792e-02
 -2.9827622e-03
 -1.9533860e-03
  5.0853979e-04
 -4.8136786e-02
  2.5669847e-02
  5.2436430e-02
 -1.9579314e-02
 -1.3035427e-02
  2.4866747e-02
  1.9872418e-02
 -7.3371381e-03
  1.5126875e-02
 -8.8852906e-04
 -3.7541064e-03
  3.4116593e-03
  1.8715749e-02
 -1.5172899e-02
  9.4478909e-04
  2.7110770e-02
  5.4987734e-03
  6.3430276e-03
  8.8712685e-03
 -1.0857408e-06
 -6.6134213e-03
 -2.8713390e-02
  3.2564698e-05
  1.9897160e-01
 -1.1769135e+00
 -2.5683400e-01
  1.6420187e-01
  2.7771370e+00
  4.9100557e-01
 -3.4882432e-01
  7.6165263e-05
 -1.3951794e+00
  2.2364499e-01
  1.1181902e+00
 -1.6210450e+00
  3.9891202e-02
 -1.9690217e+00
  4.5595238e-01
  2.0185306e+00
 -3.0486031e+00
 -8.4101737e-01
 -1.4933623e+00
  1.0906206e+00
  1.1223142e+00
 -5.5895406e-01
  3.1051362e-01
 -7.5455010e-01
  1.9964866e-01
  2.1828564e-01
 -2.3557150e-01
  1.0092012e-02
 -1.3059130e-02
 -2.5019965e-01
  1.5218680e-02
  1.8835437e-02
  7.3710865e-01
  2.6298526e-03
  3.0161366e-02
 -1.2382270e-01
 -1.1086515e+00
 -2.4894124e-03
 -7.3278815e-02
  2.5601045e-03
  1.6137118e-03
  1.2584258e+00
  1.1883031e-03
  1.8220641e-02
  7.9589924e-03
  7.2232564e-03
 -1.0347453e-01
 -2.4160080e-02
 -2.5870096e-02
 -5.0218183e-01
 -7.3678873e-02
 -2.5297654e-01
  4.0907551e-02
  2.9366052e-01
  1.1735210e+00
  2.5278902e-01
  1.7961854e-02
 -6.4167357e-04
 -9.1348281e-03
 -3.0048338e-01
  1.3233876e-02
 -3.5526042e-03
 -7.7850693e-01
 -2.3164898e-02
 -4.6966737e-03
 -1.6044563e+00
  1.6917403e+00
 -4.0431069e-03
  7.3844784e-01
  5.3481704e-01
  3.3310404e-01
  9.0068795e-02
 -1.1671520e-02
  4.9779215e-03
 -7.9350313e-03
  6.0956217e-03
 -7.9265332e-01
 -3.5928884e-01
 -1.6779746e-01
  6.1999792e-01
  1.1761327e+00
 -1.3660331e+00
 -2.4739972e-01
 -8.8073146e-01
  5.8485758e-01
 -7.1027571e-01
  3.8143743e-03
  1.6130279e-03
 -1.4108342e-01
 -2.7045791e+00
 -5.4787104e-03
  2.2654696e-03
  1.1002201e-02
 -1.6066134e-02
  1.8995693e-02
  1.0961493e-02
  2.4710675e-03
 -1.1397809e-02
  9.7451089e-03
  2.2675768e-02
 -3.3944014e-02
 -1.6947229e-03
  2.7985263e-03
  1.6995887e-03
 -3.9793119e-02
  2.2523492e-03
  9.5974270e-04
 -7.2247960e-04
 -2.5724711e-02
 -1.4634551e-03
  1.9067172e-02
 -5.2915453e-03
 -2.0863317e-02
  8.2414411e-03
  2.0552648e-02
  2.1151802e-02
 -3.2405693e-02
 -1.6545102e-02
  1.3773151e-02
  1.0635611e-02
  5.2717221e-03
  1.5756404e-02
 -5.6834039e-03
  2.5185607e-02
  1.8142039e-02
  4.8702839e-03
 -1.6459236e-02
  1.2096842e-02
 -1.5796222e-02
  2.1305157e-02
 -8.5879825e-03
 -2.1673845e-02
  2.0693373e-03
  5.0461078e-03
 -2.4230604e-03
 -3.1925164e-02
  3.8967249e-03
  8.7969936e-03
  2.2832248e-02
  3.6812311e-03
 -3.5111833e-02
  6.8787341e-03
  2.2482052e-02
  1.9439073e-02
  3.0353749e-02
 -2.8584665e-03
 -1.9945683e-02
  1.3450783e-02
 -6.1224392e-03
  4.0522408e-02
 -2.6198626e-01
  3.6912954e-01
  8.5113935e-02
 -1.2666591e+00
  1.1151220e-01
 -3.3237487e-01
 -1.9676019e-01
 -6.9630152e-01
 -1.4009762e+00
  1.0264813e+00
 -1.9689250e-01
 -2.1491723e-01
 -5.3742945e-01
  3.5055870e-01
  9.4083047e-01
  4.4492606e-04
 -3.2070041e-01
 -1.0254239e-01
  3.4914714e-01
  3.2029292e-01
  4.6754558e-02
 -3.2480046e-01
  5.0178305e-03
 -1.5660707e-02
 -2.3408785e-02
 -3.7544835e-01
  1.3558374e-02
 -9.6479766e-02
 -5.0098443e-01
 -2.2833478e-02
 -1.9157439e-01
 -2.5365177e-01
  4.3200624e-01
  2.6702347e-01
  5.4978472e-01
 -4.0378621e-01
  3.8190614e-02
  2.4246657e-01
 -3.9409724e-01
 -2.1755459e-02
  6.7256719e-01
 -3.0818102e-03
 -6.2550884e-01
  1.3079072e+00
  1.7079487e-02
  7.5837612e-01
  9.1182832e-03
 -1.2659256e-01
 -2.9234925e-02
 -2.4426055e-01
  1.4382842e-01
 -2.7670823e-02
 -1.6250683e-02
  4.6967122e-01
 -8.6372048e-01
  2.6909975e-02
  4.9792258e-03
 -4.9581903e-01
 -2.4994781e-02
  1.7189439e-02
  4.6185471e-02
 -1.1704691e-02
  2.1850135e-02
 -5.9108812e-02
  1.0180186e-02
  1.5028627e-03
 -4.4258316e-03
  2.4209993e-02
  6.9040415e-04
  5.4949406e-04
 -4.0857070e-03
  2.3784313e-02
  1.2125463e-02
  8.8699744e-04
  9.0765590e-03
 -1.0914530e-03
 -1.2043602e-02
 -9.4114529e-04
  2.9900137e-02
  3.5670422e-02
 -1.2185941e-02
  2.1110864e-02
  1.1703091e-02
 -1.3053566e-02
 -5.9459759e-03
  1.9215889e-02
 -7.1331216e-03
  8.5977986e-03
  1.1099111e-02
  5.7190452e-03
  4.8469831e-03
 -5.2923532e-03
  8.7724598e-03
 -4.4958689e-03
  1.6406288e-02
  6.6633006e-03
  1.9260075e-02
  8.2243942e-03
 -1.4075811e-02
  2.8503674e-01
 -1.5840067e-03
 -2.1498756e-02
 -1.5031945e-02
 -1.5086817e-02
 -6.4325691e-03
  2.6736530e-02
 -2.5600505e-03
  4.7955263e-02
 -2.5901934e-02
 -6.2306984e-03
 -1.6852369e-03
 -3.5149224e-02
 -2.5703717e-04
 -1.3324421e-02
 -5.1125058e-04
 -9.0161879e-03
 -2.0627428e-03
 -5.6926513e-01
  8.4754154e-03
 -3.7515296e-03
 -2.0153569e-02
  4.9695477e-04
 -1.7460141e-02
 -2.2505440e-01
 -2.7966420e-03
 -1.6454577e-02
  3.7212096e-02
 -3.4056146e-02
 -1.2532128e-02
 -1.6364945e-02
  3.9650850e-02
 -3.3292361e-03
 -3.7300666e-03
 -2.5336612e-03
 -3.9187443e-04
  4.9497010e-03
 -1.6375277e-02
 -8.1543708e-03
  2.0198822e-02
 -3.3927780e-02
 -6.9763325e-03
  1.7481532e-02
 -3.2441824e-04
  5.9845392e-02
 -5.0118808e-03
 -3.0006017e-03
 -8.7802047e-03
  6.9476594e-03
 -4.7829875e-05
  7.9671945e-03
  9.3158036e-03
  5.1351478e-03
  1.1110920e-03
  2.9168047e-02
  1.1778691e-02
 -2.9727104e-03
  2.8659969e-03
  4.1795038e-03
 -7.8017125e-03
 -2.3615219e-02
  4.5993710e-03
  9.0063354e-03
 -2.1688841e-02
  1.3481827e-02
  4.7822941e-02
  9.4365102e-04
  1.7109123e-03
  1.4477156e-02
  1.6920421e-02
 -2.5528660e-02
  5.2341286e-02
  7.5940276e-03
  4.6499565e-04
 -1.6844872e-02
 -4.0412270e-02
 -2.1398703e-02
 -1.2875643e-02
  1.2330260e-03
  6.5453718e-03
  7.4822595e-04
 -2.9291385e-01
  8.3742827e-02
 -1.2713771e-01
  9.0750843e-01
 -4.7815016e-01
  2.4841182e-01
  3.3232525e-02
 -1.3880187e-01
  1.1850029e-01
 -1.2637199e-01
  9.4818637e-02
  5.2064914e-01
  4.1474015e-01
  6.9103879e-01
  2.3986183e-03
 -4.7293421e-02
  2.5242907e-01
  2.6490277e-01
  1.3487419e-01
  2.7683971e-02
  3.9407787e-01
 -1.8261792e-02
 -4.5260169e-02
  3.4260258e-01
  2.6703712e-02
 -2.5566949e-03
 -1.8976011e-03
 -2.5912633e-03
  1.2360265e-02
 -5.8096913e-03
  3.7302896e-02
  8.7917395e-02
 -1.6224091e-03
  1.5679018e-03
 -3.8834603e-03
 -9.6426725e-02
 -3.3049961e-03
  2.1197298e-01
 -1.2597207e-02
 -1.4353589e-02
  3.0663416e-03
 -5.3205309e-03
 -1.1951850e-02
  2.8273941e-04
  7.1613328e-03
  3.8664618e-03
 -5.7767746e-03
 -2.1902353e-02
 -1.3509226e-03
 -1.0898699e-04
  8.9757321e-03
  1.5492169e-02
 -5.7266173e-03
 -3.2362889e-02
 -2.4153594e-02
 -3.8542686e-04
 -5.9956394e-04
  6.6570295e-03
 -4.1771401e-03
  1.1565675e-02
  1.1719514e-01
  2.3755892e-01
  1.3124187e-01
  5.4136045e-02
 -5.9732232e-02
 -2.0888511e-02
 -7.4843727e-03
  9.5296744e-03
  1.3280663e-02
 -2.1187786e-02
 -2.3006886e-01
  2.0121778e-03
  4.5094642e-04
 -3.9562993e-03
  3.9068364e-02
  8.3090682e-03
  4.4333581e-02
 -1.3791121e-02
 -7.1446323e-03
  3.0460802e-03
 -7.7537447e-03
  4.7168564e-03
  1.6272891e-02
 -1.3477718e-02
 -3.3640504e-01
 -8.8643162e-03
  3.7334084e-03
 -1.3708815e-02
  2.6851371e-02
  2.1944020e-02
  3.8311899e-01
 -6.2572759e-01
  1.8466635e-01
  8.0321944e-01
 -1.3583238e-01
 -1.6213728e-02
  5.8206034e-01
  2.0643999e-01
 -2.7267268e-01
 -4.4230589e-01
 -7.8140534e-02
  5.9635383e-01
  8.8168889e-02
 -8.4635377e-02
  7.6719602e-03
 -7.2523393e-02
  2.2234745e-01
  3.0015782e-02
 -3.1147650e-01
  2.5654820e-01
 -2.1752582e-01
  6.8846053e-01
  5.2594330e-02
 -7.8990730e-03
  2.6919523e-01
  1.7622996e-02
 -3.6048487e-02
  1.5144720e-02
 -1.8406305e-02
  1.0794770e-01
  2.6644954e-01
  6.2514228e-01
 -1.9559823e-01
  2.2300221e-02
 -4.5432210e-01
  1.7768163e-02
 -5.8322281e-01
  1.0757751e+00
  2.5069457e-01
  5.2046798e-02
  7.7504553e-02
 -6.2966311e-01
  6.6466773e-01
  2.2383211e+00
  7.9446667e-01
 -4.5314333e-01
 -1.2899760e+00
  1.4489943e+00
  7.8643572e-01
  6.2164921e-01
  3.0734959e-01
  1.3057550e-02
  2.4045415e-01
  9.6130393e-02
  3.1437048e-01
 -1.2085383e-02
  8.8871988e-03
 -3.1795400e-01
  1.8469600e-01
 -5.2505810e-02
 -3.0735279e-03
  9.1185258e-04
 -1.1307362e-02
  2.2683976e-02
 -3.7851832e-03
 -1.4405315e-02
  5.3567644e-03
 -3.8270196e-01
  3.5203623e-03
  2.7497351e-02
 -1.9367357e-03
 -2.8006067e-02
  6.5399292e-03
  2.3657179e-03
 -2.0653259e-03
  1.3707555e-04
 -3.2281531e-03
  1.4183268e-02
  5.4184417e-04
  4.9615465e-03
 -9.4302502e-03
  2.8020245e-01
 -5.8782725e-03
  3.9203786e-03
  9.2806211e-03
  2.9349802e-03
  4.3965504e-03
  4.0400936e-03
  5.3805220e-03
  4.1890894e-03
 -3.3517561e-03
 -1.0729395e-02
 -1.6539609e-02
  3.3197340e-03
  3.2012449e-03
  3.4195557e-04
  1.6690446e-02
  1.2395389e-02
 -2.5696129e-02
 -4.7384202e-02
 -2.8817245e-04
  2.5981767e-04
  3.4122037e-05
 -2.0319967e-02
  2.0586066e-02
  1.2069797e-02
  4.9345737e-04
  9.3092564e-03
 -5.4125827e-02
  4.5492812e-03
 -1.0801819e-02
 -3.2421618e-03
 -1.7991522e-02
 -5.6430069e-03
  1.5055211e-03
  9.7221410e-04
  1.8296588e-02
  8.8991201e-04
 -1.1820999e-02
  2.1857230e-02
 -7.6446779e-02
 -6.5877114e-04
 -7.5628343e-03
 -2.3084122e-03
  2.8333662e-02
 -9.4894439e-02
 -1.0446873e-02
  2.0220631e-03
 -8.5269921e-03
  2.6230955e-02
  8.1409961e-03
  1.6019495e-02
  1.9821911e-03
 -6.4188628e-03
 -6.9870148e-03
 -6.5400638e-03
 -3.2326551e-03
  6.5338081e-03
 -1.7785653e-02
  4.6748822e-04
  2.2472575e-02
  1.8831986e-03
  4.3856334e-03
 -5.7841791e-03
  3.4563851e-02
 -2.6941996e-03
 -3.0677868e-03
  2.3863316e-04
  5.1153013e-03
 -1.3765922e-02
  1.9785444e-01
 -7.7346772e-01
  2.6272030e-03
  8.9817338e-02
  8.7010032e-01
  7.0029207e-02
 -1.9735519e+00
 -2.9385146e-01
 -3.7129444e-01
  6.3064359e-03
  5.0994843e-01
 -1.7760438e+00
  2.1128365e-01
 -1.1466017e+00
 -2.0699647e-01
 -1.1133879e-01
 -1.7559336e+00
 -1.0962035e-01
 -5.6437749e-02
 -2.5524887e-01
  2.6556820e-01
 -1.8019707e+00
 -5.6783739e-02
  3.5012532e-02
  6.9698639e-02
  1.5658315e-02
  5.5263293e-01
 -5.7480896e-01
 -5.6198831e-03
 -2.4600984e-03
 -3.3960325e-01
 -2.2277906e+00
  3.5715442e+00
  2.2859624e-01
  2.9511302e+00
 -7.3448408e-01
 -3.7193097e-02
 -8.7784958e-01
 -4.3911201e-01
 -2.0426364e+00
 -8.4736055e-01
 -3.1761956e-01
 -1.2942586e+00
  4.5643658e-03
 -2.3102527e+00
 -1.1366408e+00
  4.1374478e-01
 -1.2638292e+00
 -2.7882943e-01
 -9.7382230e-01
 -1.9856274e-01
 -1.5157690e+00
 -6.7483045e-02
  1.3320869e-01
 -7.2120535e-01
  1.1182951e-01
 -4.2959461e-03
 -5.5663478e-01
 -8.7443107e-01
 -1.3555350e-02
 -1.6500752e-02
  1.9692698e-02
 -6.0518547e-03
 -2.3562178e-02
  2.6550537e-02
  1.3945525e-02
 -7.0162113e-03
  6.1163693e-03
  4.4687389e-04
  1.9388553e-02
  2.0854685e-03
  3.2189700e-03
 -2.1530867e-02
  4.7544844e-02
 -8.9469841e-03
 -9.6123535e-03
 -3.3746527e-03
 -3.0360736e-03
  2.4808981e-02
 -2.5320327e-02
  7.2293833e-02
  4.9077510e-03
 -7.6143546e-03
  1.2474769e-02
 -1.8823955e-02
  1.6055778e-02
  1.2370925e-02
 -4.3931622e-03
 -4.5362461e-02
 -1.0880763e-02
  1.7587470e-01
  1.6641071e-01
 -1.0764309e+00
  7.6330167e-01
 -5.1530653e-01
 -3.9824793e-01
 -6.0041402e-03
  8.0073373e-03
  3.9517958e-02
 -6.3358329e-04
 -5.6691095e-02
 -1.3441384e-02
 -4.8117205e-03
 -1.7016076e-02
 -1.0822834e-02
  1.3179491e-02
  3.8175967e-02
  1.1466882e-02
 -1.3513589e-01
  1.6193470e-02
 -3.0893870e-02
 -1.3407558e-02
  2.5793889e-01
 -1.0422055e-02
 -1.2973446e-01
 -3.3435770e-03
 -5.7699513e-03
 -2.4028746e-02
  1.2716023e-03
  6.7751569e-04
  6.6941962e-02
  1.4812803e-01
 -9.8701477e-01
  2.5942412e-01
 -6.3369823e-01
 -1.0955485e+00
  4.3540698e-01
 -1.4774159e-01
 -5.5988650e-03
 -1.3565737e-01
 -1.4495670e+00
 -4.8621614e-02
  1.2317880e+00
  8.5153794e-01
  4.2930447e-02
 -1.7498043e+00
 -3.3989690e-02
  2.1316293e-01
 -3.2342800e-03
  8.3911708e-03
 -7.5566310e-01
  1.8898563e-01
  1.7134286e-01
  7.0676215e-02
  2.2340352e-02
 -1.0347347e+00
  5.2099237e-03
 -1.4055354e-03
 -3.3926005e-03
 -4.1939090e-03
  7.0103161e-02
 -5.2329808e-01
  1.4855862e+00
 -3.6734605e-01
  1.2920406e+00
 -2.3450972e-01
  8.5471734e-02
 -8.2970393e-01
  8.7056404e-01
 -3.2215968e-01
 -7.5016367e-01
 -5.2625602e-01
 -1.5279454e+00
  9.2316848e-01
  3.8306943e-01
 -8.7169901e-02
 -7.5730646e-01
 -1.9989916e+00
  6.8069339e-01
  5.6027051e-02
  1.3405859e+00
 -3.8962197e-01
 -1.2743800e+00
  4.3629155e-01
 -2.4093352e-01
  6.1977744e-01
 -7.7811009e-01
 -9.0962268e-02
  5.1566696e-01
 -1.8008931e-01
  1.0233896e-01
 -5.3634429e-01
 -9.0124774e-01
  6.8797618e-01
  1.8890420e-01
 -3.5450426e-01
 -3.6270001e-03
  1.0379626e-01
  1.0421661e+00
  1.8674305e-01
 -1.8419400e+00
 -4.9319964e-02
  9.7704870e-01
 -3.3935845e-02
 -8.3414754e-03
 -2.0032248e-01
 -1.4793975e-04
  2.1619121e-02
 -1.3369916e-01
 -1.3878366e-01
  4.7289599e-03
 -2.3853503e-02
  2.6921719e-02
 -4.1993016e-01
  3.9542165e-02
 -1.7790603e-02
 -9.0927687e-03
 -2.2480874e-01
  2.7188605e-03
  4.5975156e-02
  7.2830880e-01
 -6.6781741e-01
  4.3007545e-02
  1.2718700e+00
 -1.9743709e-02
 -4.9076819e-01
  5.9598073e-02
  6.1057750e-02
 -2.1648327e-02
 -1.1796384e-01
  3.7539062e-01
  3.6404124e-01
 -1.9061326e-03
 -9.8944446e-03
  6.1056111e-03
 -2.4310961e-02
  3.2299185e-01
  1.6971256e-01
 -4.2606971e-01
  4.3048847e-01
 -1.3036741e-01
  1.8542702e-03
  2.9624235e-02
 -2.1831306e-02
 -4.3329448e-04
  7.0146332e-03
  7.1803764e-03
 -5.3757350e-03
  5.2051254e-02
  7.4969739e-02
 -8.1054337e-02
  8.6874104e-01
 -2.4839058e+00
  4.7345963e-01
 -1.6526265e+00
  1.4231300e+00
  8.9980274e-01
  9.2828190e-01
  5.1504731e-01
  1.8134031e-01
  1.2183766e+00
  1.0160164e+00
  9.3170804e-01
 -2.1106160e+00
  1.0393614e-02
  1.5827852e-01
  1.9594088e-01
  3.5916755e-01
 -7.9912524e-04
 -1.3975766e-01
 -1.3577114e-01
  1.1128038e-02
 -4.6629891e-01
  1.7667437e-02
 -3.4009039e-01
 -3.2614153e-02
  1.3189307e-02
  3.1707597e-01
 -1.8133427e+00
 -7.0010453e-01
  2.1873375e-02
  1.3998209e-02
  5.7673007e-03
 -1.8066403e-02
  9.8671811e-03
 -3.2073932e-03
 -4.9762088e-03
 -2.8064871e-02
  3.7820314e-03
  2.6072841e-03
 -9.3793217e-03
  1.2560110e-01
 -5.0314520e-03
 -1.4594602e-02
  2.2513026e-02
  2.4478560e-02
 -1.2149748e-03
 -3.4550533e-02
  2.4652112e-02
 -1.1146551e-02
  2.7090345e-02
  1.0877660e-02
  1.0929913e-02
 -7.2682383e-03
 -4.8107198e-03
  1.0050111e-02
 -1.5029522e-02
 -1.2941726e-02
 -6.2276963e-03
  2.3402900e-02
 -3.3033079e-01
 -9.5439398e-01
  6.4922768e-01
 -5.8266461e-01
  3.0433965e-01
 -7.9794383e-01
 -6.2956047e-01
 -6.5868735e-01
 -5.9157497e-01
 -1.1515982e+00
 -1.2601916e+00
 -8.8883364e-01
 -1.0982704e+00
 -5.6154555e-01
 -5.0748867e-01
 -9.5997488e-01
 -1.3638686e+00
 -7.9635620e-01
 -1.3985740e-01
 -1.3038263e-01
 -2.1060525e-01
 -1.2208772e+00
  7.1956135e-02
 -1.7445841e-01
 -5.8804091e-02
 -3.0064752e-02
  5.8262824e-04
  2.4732379e-02
 -5.1288402e-01
  2.5537798e-01
  5.2385396e-01
 -1.2066440e-02
 -6.2699046e-04
  1.3589667e-01
  2.6627323e-01
 -9.9374659e-02
 -1.3329235e-02
  2.5913183e-02
 -1.4248659e-02
 -9.1087027e-03
 -1.0298246e+00
 -2.7641481e-02
 -2.6869163e-02
 -1.7808575e-02
  1.3929812e-02
  1.1792216e-03
 -1.3075903e-02
 -1.5622044e-03
 -4.6461751e-03
  6.6995167e-04
 -1.0865162e-02
  2.1571580e-04
  1.2877702e-03
 -5.7744919e-03
 -7.2879851e-02
  7.6147896e-04
 -8.1450315e-03
 -3.4967747e-02
 -2.0836743e-02
  7.1927469e-05
 -6.5951748e-03
 -1.1117568e-04
 -5.5256385e-02
 -3.8617456e-03
  2.2432304e-03
 -1.2846062e-02
  1.1392156e-02
  1.3735828e-02
  3.0755568e-02
 -2.2448886e-02
  2.7842759e-03
 -3.6698745e-03
 -2.7331175e-02
  6.5260855e-03
 -1.1514943e-02
  1.6592762e-02
  1.1657368e-02
 -7.7866804e-05
 -3.0696082e-03
  8.0596497e-03
 -2.5615610e-02
 -1.8851986e-02
 -7.9605421e-03
  1.6786478e-01
 -3.0421143e-02
 -5.9836376e-03
  7.5672549e-04
  3.6036860e-02
 -1.2763551e-02
  1.7584898e-02
  2.5238983e-02
  6.1076546e-01
 -1.7563993e-01
  1.2169614e-01
 -3.8865576e-03
  2.3152225e-01
 -6.3151002e-02
  5.2978401e-03
  7.7337760e-01
 -1.0005640e-01
  1.0976784e-02
 -2.0740275e-01
  1.5491657e-02
  3.7913838e-01
  1.5677050e-01
 -1.2908673e-01
  8.8119414e-03
  1.4010543e-01
  1.1395481e-02
  7.1676120e-02
 -1.6028216e-02
  3.1373661e-02
  2.4297181e-01
 -6.5045059e-02
 -4.7256242e-02
  1.9689680e-03
 -4.2451150e-04
 -3.1832996e-01
 -1.9725231e-02
  2.0328777e-02
  1.2399462e-02
 -1.0332797e-02
 -2.5593075e-01
 -2.0758754e-02
 -9.1616157e-03
 -1.3521313e-02
  1.8634971e-02
 -1.0194856e-02
  2.1444027e+00
 -2.9747656e-02
  5.0285673e-03
 -2.1986231e-01
  5.6787916e-02
  1.3501029e-01
 -2.3992836e-02
 -1.3780539e-02
 -1.9845546e+00
 -1.4176913e+00
 -1.8101165e-02
  7.4170381e-01
 -2.2098358e+00
 -6.6960764e-01
  8.5128021e-01
 -3.6104240e-02
 -6.7287588e-01
 -5.1976242e-03
 -2.5622368e+00
  4.2721035e-04
  1.2403063e-02
 -3.6684297e-02
  1.2682025e-02
 -5.2017458e-02
  9.4953901e-01
  6.5700233e-01
  2.3621495e-03
 -8.0956019e-02
  1.7999691e-01
  6.1596878e-04
  1.1369574e+00
 -1.2326272e-01
 -2.8219622e-01
 -7.4194711e-01
 -9.9069768e-01
  2.3501310e-02
 -4.6674099e-02
  6.5596983e-02
 -9.2519361e-01
 -1.1536347e+00
  2.2277405e-02
 -2.6122537e-01
 -1.1602467e+00
  1.0902442e+00
 -3.7156218e-01
 -3.1582206e-01
  8.9039785e-01
  5.3014465e-02
 -9.6047151e-01
 -1.5808910e-01
 -5.6867930e-03
 -5.3331405e-01
 -2.1486556e-02
  2.2311579e-03
 -1.5334567e-01
 -3.0098787e-02
 -2.7178220e-02
 -2.5352709e-02
 -5.3897956e-03
 -3.3569660e-02
  5.9367381e-03
  2.5777302e-03
 -6.2520392e-03
  5.4279058e-03
 -2.5904491e-03
  1.3195044e-02
 -1.5066371e-02
 -4.7876127e-02
 -2.4255583e-02
 -2.3340821e-02
 -5.1944335e-03
  2.2053835e-03
 -1.0569210e-02
 -2.1145993e-03
 -9.8673543e-03
 -7.1241623e-03
 -8.6134559e-01
 -2.6895400e-02
 -2.8916951e-02
  2.0647078e-04
 -1.1617692e-02
 -1.0684197e-03
 -1.4453956e-02
  3.8963826e-03
  3.2659252e-03
 -2.8294814e-03
  1.4385786e-04
  1.8689550e-02
  4.2324546e-03
  1.0555378e-02
 -6.0257888e-03
 -4.0096757e-03
 -1.6712353e-02
  2.9965919e-03
 -6.0476963e-03
  7.6658665e-03
  4.0560778e-02
 -3.4927030e-03
  5.1748338e-03
  4.7348551e-03
 -3.0271806e-02
 -8.3014639e-03
 -6.2630355e-04
 -1.0234917e-02
  4.5451419e-03
  1.1139592e-02
  1.8479124e-02
  3.3539706e-03
 -6.1319890e-03
 -1.0718727e-02
  8.7790824e-03
  2.2584204e-02
  6.1837300e-03
  1.1092223e-02
  2.4643302e-02
 -1.1036841e-04
  2.8313573e-03
 -7.6994870e-04
 -1.6531408e-02
  5.4859188e-03
 -1.9971972e-02
 -1.4685991e-04
 -8.4460033e-03
 -1.8550463e-04
  1.4216944e-02
  9.8028630e-03
  1.1502530e-03
 -1.6456291e-02
  2.2022886e-02
 -7.3600765e-03
 -1.7111687e-02
 -1.3598802e-02
  1.1153289e-02
  1.3813542e-02
 -3.0030101e-03
 -4.2890902e-03
 -6.3320668e-03
  3.1974677e-03
  5.7797986e-03
 -4.4581499e-03
  9.3615158e-03
 -2.0058917e-02
  1.2099318e-02
 -6.1089748e-01
 -5.6637643e-04
 -8.5733104e-03
 -3.6405874e-04
  2.8437416e-03
 -1.0467998e-02
  7.2646849e-03
  3.5896459e-01
 -4.5122150e-03
  4.2400384e-04
  8.3742999e-03
  1.9077435e-02
 -6.1562199e-02
  1.8062269e-02
 -1.3323192e-02
 -9.4139595e-03
 -1.9029608e-02
  4.3897760e-01
  1.6179163e-02
 -3.8497210e-03
 -5.8755758e-03
 -2.6674107e-02
 -1.1351629e-01
 -5.8715874e-03
 -6.0948352e-03
  6.4302114e-04
 -6.0818163e-03
 -3.9831852e-04
  1.4477668e-02
 -1.4267989e-02
  7.2071571e-03
 -1.6391836e-02
 -3.6684878e-02
 -2.2787435e-03
  6.6698520e-03
  1.1353539e-02
  4.7381828e-03
  1.0637723e-02
 -1.4904728e-03
 -3.0870135e-03
  1.1476438e-02
 -1.0002931e-03
  2.4071647e-02
  2.0355303e-03
 -1.1250328e-02
 -2.2144055e-03
 -2.3284806e-03
 -2.2864996e-02
 -2.3921546e-02
 -1.8454834e-03
 -8.1956321e-03
  2.7852952e-03
  1.4239094e-02
  7.8460705e-03
  2.4777904e-02
 -1.4586230e-02
  1.8415958e-02
  2.5455481e-03
 -1.0508640e-02
  1.3713776e+00
 -7.9404945e-03
 -4.5067174e-04
  2.1505881e-02
 -3.5655026e-03
  1.1827537e-02
 -1.6697880e-02
  1.3619326e-02
 -3.9786901e-03
 -2.2908933e-03
 -2.8658211e-02
 -6.2254881e-03
 -2.4930404e-03
 -4.6070807e-02
 -9.1040237e-03
  1.3560926e-03
 -1.5892528e-03
  3.1682441e-03
  2.1504983e-02
  6.2225782e-04
 -2.4119241e-03
  1.8486094e-01
  1.6128953e-04
 -7.9829646e-03
 -3.7321493e-03
  4.6979191e-04
 -2.1024495e-02
 -3.7599202e-02
 -1.1322290e-03
 -8.1665702e-03
 -6.8011261e-03
 -4.1899616e-03
  6.6174747e-04
 -3.1436787e-03
 -1.3429328e-02
 -1.3549020e-02
 -1.7317176e-02
  5.2071558e-03
  2.8769765e-03
 -2.0953411e-02
  1.1247135e-02
  6.6795237e-03
  2.1148461e-03
 -3.2022281e-04
  4.4344878e-03
 -3.5117241e-03
 -1.8391086e-03
 -2.8422985e-03
  8.9617753e-03
 -2.0923788e-02
 -5.7764770e-03
 -3.3712901e-02
 -3.3090618e-02
 -5.1925094e-03
 -1.2248231e-02
 -7.6779216e-03
  3.8402497e-03
 -5.6438772e-03
  1.4516433e-02
 -4.5534842e-02
 -6.3164639e-03
 -8.9783948e-03
 -1.5107535e-02
  1.6953978e-03
  2.8749830e-03
 -7.5184903e-03
 -5.8952901e-03
  1.0572002e-02
 -1.1671694e-02
  1.0767652e-02
 -1.1078569e-02
 -1.6254487e-03
 -1.3225388e-02
 -9.4663789e-03
  9.0632150e-03
  2.7145350e-03
  2.0237043e-02
 -1.0260368e-03
 -2.2192686e-03
  3.9854683e-03
 -3.5496214e-05
  1.6935015e-02
  7.8301290e-03
  2.4041664e-02
  2.2793494e-03
 -1.1868055e-02
 -1.4905536e-03
 -1.4877910e-03
 -1.2981922e-02
 -5.5401307e-03
  1.6327450e-02
  5.7739810e-05
 -3.3901270e-02
 -6.6591047e-02
 -7.6608146e-03
 -2.0688629e-02
 -1.4932333e-02
 -1.3359296e-02
 -1.0040787e-02
  1.8930472e-03
 -6.0285446e-03
  1.8324997e-02
  2.5966767e-02
 -1.0084816e-02
 -6.7175622e-03
  9.5189391e-03
  1.2500428e-02
  2.9825781e-02
 -2.6024761e-02
 -2.5183475e-02
  5.0771092e-03
  5.1096588e-04
 -1.0502181e-02
 -1.9277338e-02
  1.9686308e-03
 -2.1247299e-02
 -3.9097280e-03
  7.8665477e-04
 -9.2266016e-03
 -2.9973382e-02
  1.6961517e-02
  2.1607848e-01
  2.3589551e-02
 -1.8452361e-03
 -8.5220946e-04
 -1.5489857e-03
  1.7778065e-02
 -2.3283839e-02
 -5.7588881e-01
  6.7825303e-03
  4.0511778e-03
 -1.4576581e-03
  1.4531480e-02
  7.7071473e-02
 -2.2738229e-02
  1.4638551e-02
 -3.0456034e-02
  2.8053038e-02
 -8.0236560e-01
 -1.1829925e-02
  1.2919982e-02
  4.6109515e-03
  1.4346895e-04
  7.1595930e-02
 -7.4870535e-03
 -7.1694539e-03
  9.2466008e-03
  2.3878414e-02
  3.0693081e-01
 -4.6745101e-03
 -1.1367931e-03
 -3.1076779e-03
 -2.0597095e-02
 -3.3239741e-02
 -6.5056244e-03
  1.4141571e-02
  5.2081933e-03
 -9.1307430e-04
  9.2590105e-04
 -7.7203601e-03
 -1.0580244e-02
 -2.4110928e-02
 -1.3235907e-02
  4.6576109e-02
  6.0981154e-03
 -2.2286528e-03
 -4.4443491e-03
 -3.1539744e-03
  2.0304325e-03
  2.5561325e-02
 -5.5783037e-03
  4.9219690e-03
 -5.9957877e-03
  3.8272259e-03
 -4.0319385e-03
  3.5174282e-03
 -9.6404459e-03
 -4.6487784e-04
  2.6576812e-03
 -5.5614638e-04
 -2.3450633e-03
 -2.6618751e-02
  2.9019117e-03
  1.4043413e-02
  6.2601734e-03
  1.9412339e-02
 -4.4447184e-03
 -1.5524261e-02
 -1.4018058e-02
 -7.1494039e-03
 -4.4195176e-04
  1.6170127e-02
 -1.5029916e-02
  1.4440378e-02
 -1.0222981e-02
  9.9859918e-03
  3.6385469e-02
  4.9452228e-03
 -5.7933945e-04
 -2.6372215e-03
 -6.0129892e-03
  1.8272065e-03
 -3.8402963e-02
 -9.9098664e-03
  2.9759007e-03
 -3.9007037e-03
  1.6017262e-03
  1.0509276e-02
  4.1590207e-03
  4.0900681e-02
 -4.5151049e-03
  1.2752297e-02
  2.5782445e-02
  1.1569696e-02
 -2.9669439e-02
 -2.9521367e-02
  2.6210850e-02
 -1.9030963e-03
 -4.7753859e-02
  2.8862057e-02
 -1.8141944e-02
  1.4287338e-03
 -1.6790340e-02
 -3.1959690e-02
  4.9479172e-02
  2.1586327e-02
  2.0556150e-02
  1.8239509e-02
 -1.4283148e-02
 -6.0790428e-03
  1.9415019e-03
  6.3255802e-03
  1.9420322e-02
 -1.0215282e-02
  1.2710913e-02
  7.0668110e-03
 -7.8676101e-03
 -9.9316174e-03
  7.5026676e-03
  6.8642315e-03
  9.4313649e-03
  1.4090169e-02
 -6.4281579e-03
  2.7730741e-02
 -6.4878264e-03
 -3.3597224e-03
 -1.1659124e-02
 -5.7865758e-03
  1.1413722e-02
 -8.3232764e-03
  3.5217483e-02
  3.5780799e-03
  8.3548948e-03
  3.7700962e-03
 -2.4550518e-02
 -1.1746561e-02
  5.5312091e-03
 -2.7136672e-02
  5.7541369e-04
  5.1102452e-03
  1.0081919e-02
  5.9801228e-03
 -3.1065277e-03
 -2.8809946e-02
 -1.6906483e-02
  8.2371999e-03
 -1.9590275e-02
  4.7609438e-03
  1.5102078e-02
  1.0494279e-02
  3.8076863e-03
  1.9996879e-03
 -2.9296363e-03
  2.3566473e-02
 -2.1691039e-02
 -2.9616328e-03
  2.5560353e-02
  2.7442575e-02
 -2.7926946e-02
  1.2464263e-02
  8.9316815e-03
  5.6123105e-03
 -4.0161568e-03
  4.0165135e-03
 -5.5279969e-03
  4.5918263e-03
 -2.5175571e-02
  2.0167507e-02
 -2.0152206e-02
  1.1146741e-02
 -1.6114004e-02
 -1.4366538e-03
  1.0935481e-02
  2.1880155e-02
 -2.5242876e-04
  1.4796256e-02
  1.1576594e-02
  1.3854590e-02
 -3.9506142e-04
  1.5809594e-02
  1.4097493e-03
 -2.2915827e-02
 -2.7078805e-02
 -1.1546171e-02
  1.4805224e-02
  1.3457404e-03
 -9.0576904e-03
 -7.9518491e-03
 -1.5250131e-02
  3.5301556e-03
 -4.5353859e-03
 -9.4006164e-03
  1.4006746e-02
  1.2081034e-02
 -5.9909741e-03
  4.0460243e-03
 -2.3679070e-02
 -5.9161237e-03
  1.5430895e-03
 -1.5708145e-03
 -4.3944456e-03
 -3.9870601e-02
  6.6978382e-03
  8.5034519e-03
 -9.7233905e-03
  7.8975764e-04
  1.6085584e-02
  1.6286839e-02
 -3.7300605e-02
 -2.0898109e-02
 -1.9935740e-02
 -6.7653381e-03
  2.0009901e-03
  1.6701686e-03
  1.2350071e-02
  7.7634263e-03
  2.0303067e-02
 -1.4263346e-02
  6.3571907e-03
  2.3761859e-02
 -1.7815394e-02
 -6.9906227e-03
  2.3403750e-03
 -2.6522838e-03
 -3.0671548e-02
  2.9047031e-03
 -2.9334854e-02
  2.4467774e-03
 -9.1059627e-03
 -9.4730025e-03
 -7.5189336e-03
 -3.3545571e-03
 -4.6013924e-04
  1.8212957e-02
  1.5799528e-02
 -8.6231165e-02
 -9.5801288e-03
  1.5283477e-02
  1.7569169e-02
 -1.3884047e-02
  3.0396951e-02
  4.1967756e-04
 -1.1267807e-02
  4.1351644e-03
 -1.0712417e-02
  4.0013674e-03
  1.2598624e-02
 -2.6414993e-03
 -1.5351142e-02
 -1.0236526e-02
  3.4687500e-02
  4.1332627e-03
  2.2563783e-02
  9.4681121e-03
  5.2769980e-03
  1.9695868e-03
  1.4268864e-03
  1.3267815e-02
  1.8433498e-02
  1.9280771e-03
  9.7400555e-03
 -1.2902591e-02
  3.7009604e-03
  2.4856852e-02
 -4.9046832e-03
  9.1156093e-03
  4.5880275e-03
 -3.0559327e-03
  7.1875388e-03
 -1.2688210e-02
 -3.0561662e-03
  2.1123640e-02
  1.2088011e-02
 -1.1131424e-02
 -1.1003435e-02
 -1.4305959e-02
 -3.7091416e-03
  1.6560577e-02
  5.3294576e-03
 -5.3586392e-03
  5.2953260e-03
  5.8632488e-03
  2.0813129e-03
 -1.4470231e-02
  9.2595126e-03
  1.9322850e-03
 -3.8055242e-03
  1.0896383e-02
  2.9001402e-02
 -3.9908595e-02
  1.4086128e-02
 -1.0695034e-02
  4.2872964e-03
 -3.1812408e-03
 -1.1978672e-03
 -1.7294186e-03
  1.0671771e-02
  4.3282304e-03
  2.0042757e-02
 -8.3512953e-03
 -4.4588081e-04
 -4.8043048e-03
  2.7609473e-02
 -2.8888215e-03
 -3.2021888e-02
 -1.0798600e-03
 -6.9353124e-03
  8.6428160e-03
  4.2509548e-03
 -1.6242065e-02
 -3.6602527e-02
  7.1486337e-03
  2.3423969e-03
 -1.8740900e-02
 -1.7115332e-02
  1.0703058e-02
 -4.3134452e-03
  2.0605784e-02
 -7.2984896e-03
  1.3898186e-02
  5.8973962e-03
 -1.5089825e-02
 -8.1198990e-01
  1.5425239e-02
 -3.5259600e-03
  6.3387305e-03
 -1.3138958e-02
 -3.2807593e-03
  4.4504361e-04
  9.6115824e-03
 -4.1624662e-03
  6.6858130e-03
  2.7328299e-03
  8.3806114e-03
  4.8120874e-03
  2.4961285e-02
  1.0725387e-02
 -1.6912130e-03
  1.1597296e-02
  8.0558192e-03
 -6.3751019e-03
 -1.3274028e-02
  1.9359236e-03
  4.3793810e-03
 -1.5848361e-02
  1.4890501e-02
  1.2349098e-03
  1.4822761e-02
  3.7824634e-02
 -3.0528300e-02
 -7.5642234e-03
 -8.8955287e-04
 -5.9797283e-04
  2.5146108e-02
  3.0343872e-03
  7.8799594e-03
 -5.7921623e-04
  1.5938615e-02
  8.1029357e-03
  4.3304567e-04
 -4.7326731e-03
  2.1476621e-02
 -8.3903009e-03
  3.3191305e-02
  6.8993296e-04
  2.4392006e-03
 -1.1646202e-02
 -3.4912094e-03
 -2.9281212e-02
 -2.5885660e-04
  1.0074034e-02
 -2.9112346e-02
 -1.2422781e-02
 -1.0765650e-03
  6.7371186e-03
  1.5993951e-02
  9.2838965e-03
  8.0426555e-04
  1.4509184e-03
  9.6846391e-03
  1.0432783e-02
  1.6558096e-02
 -1.2779539e-02
 -8.6373249e-03
 -5.8045755e-03
 -6.8122544e-04
 -1.3108951e-02
  3.0250650e-02
 -3.3475368e-03
 -2.8083261e-02
 -2.0096912e-03
  9.8135434e-03
 -6.3930298e-03
  8.8659022e-03
 -8.9737243e-04
  4.8454902e-03
 -8.4070279e-04
  1.5534865e-03
  8.0674281e-03
 -9.4200438e-03
 -1.3932189e-02
  1.8069794e-02
 -7.0224120e-04
 -2.6196741e-02
 -3.1515730e-03
  1.8550726e-02
 -3.5977472e-02
 -1.0088379e-02
  1.4706189e-02
  2.9417677e-02
 -1.5392303e-02
  2.2817098e-02
 -1.1447756e-02
  9.8977694e-03
  1.0922438e-02
  9.0384772e-03
 -9.8363096e-03
  2.4598578e-02
  6.0066748e-03
 -1.4618969e-02
  4.1078604e-03
 -1.8383318e-03
 -2.4016729e-02
  2.7180573e-02
 -1.1063607e-02
  1.6010841e-02
  5.0353649e-04
 -6.9516595e-03
  3.9769369e-03
 -9.6745044e-03
 -8.7039871e-03
 -4.9348595e-03
  8.1023471e-03
  6.8972846e-03
 -9.9359127e-04
 -2.4332190e-03
 -1.9576994e-03
 -4.5290720e-03
 -2.8498521e-02
  5.6737768e-03
 -1.0571416e-02
 -3.5027619e-03
 -9.4696600e-04
  1.2462943e-01
  5.6449198e-03
 -8.0045182e-03
 -7.8944652e-04
 -8.8905497e-03
 -7.2998963e-03
  2.2386387e-02
  1.0234935e-02
  1.4663633e-02
 -2.0422293e-02
  9.2784520e-03
 -3.4711815e-02
 -2.6988354e-02
  1.6862988e-03
 -2.2807010e-03
 -1.4068776e-02
 -1.2294416e-03
 -4.6587460e-02
  6.6802106e-03
 -3.2914761e-03
  5.6105321e-03
  1.5390874e-04
  9.2642605e-03
 -3.4534308e-04
 -9.7099431e-03
  3.1048996e-02
  1.4646097e-02
 -2.3089945e-02
 -1.2264205e-02
 -1.4909512e-02
 -2.3391845e-02
  2.9201385e-02
 -2.9118279e-02
 -4.6245391e-03
 -7.4718841e-03
  4.8618386e-03
 -4.3866714e-03
 -3.6269240e-02
  1.5114978e-03
  1.4254729e-03
 -3.3703123e-04
 -2.0884136e-02
  1.8304188e-03
  2.3661444e-02
 -9.9259885e-03
 -1.7285274e-02
  5.3362944e-04
  5.8451355e-03
  2.6303731e-02
  1.0914765e-02
 -5.3881161e-04
 -9.5773989e-04
 -6.0094777e-03
  2.2188567e-03
 -4.3168878e-03
 -2.0048757e-04
  1.4790069e-02
  3.5844059e-03
 -1.6317930e-03
 -3.0835742e-02
 -6.8039997e-03
 -3.8092013e-02
 -2.9493202e-02
  3.1656653e-03
  2.9282593e-03
 -5.8850939e-03
 -1.6350050e-02
 -2.9892048e-03
 -1.5544528e-02
 -4.1239532e-03
  3.8293430e-03
 -3.6578674e-02
  1.3729318e-02
 -8.8831447e-03
 -2.4576141e-02
  6.0385275e-03
  5.4524560e-05
 -7.9257879e-03
 -1.9770101e-02
 -6.0582203e-03
  2.2867752e-02
 -3.7955705e-03
  1.7468615e-03
 -1.0799731e-02
  2.0124827e-02
  2.9868879e-03
  2.3514189e-02
  1.2068076e-02
  2.5996607e-02
 -7.8345072e-03
 -2.4651336e-03
 -4.0395386e-03
 -1.4038884e-02
  2.7319358e-03
 -1.2732762e-03
  3.5215353e-03
  6.5091504e-03
  8.0494219e-03
 -8.7068090e-03
 -9.2921043e-03
  5.6558684e-03
 -9.9118650e-03
 -2.3547679e-03
 -5.4981173e-03
 -9.2691332e-03
  7.9731224e-04
  2.6023324e-04
 -1.6858688e-02
  9.9655064e-03
  5.8088009e-03
 -3.4831327e-03
  1.4059864e-02
  1.5007225e-02
 -2.9894631e-04
 -8.1794616e-03
  1.8499272e-02
  1.9811266e-03
  1.6002325e-02
 -1.0679050e-02
 -1.9601647e-02
 -6.1642863e-03
  1.8079529e-02
 -1.1675622e-02
  1.9903973e-02
  1.8886164e-02
 -1.9744482e-02
 -2.0744467e-02
 -1.9663490e-02
 -3.0054765e-02
 -2.5603576e-03
  1.7429238e-02
 -8.2135117e-03
 -1.9605889e-03
  8.5503183e-02
 -1.3274382e-02
 -3.6875927e-03
  2.0792702e-02
 -1.8601248e-02
  2.0482445e-02
  1.0230383e-02
  5.5818991e-03
  1.9705744e-02
 -3.9660544e-03
  2.2854460e-03
  1.3527129e-03
  1.7332546e-03
 -8.5148234e-03
  7.1416958e-03
  7.4073374e-03
  1.8958688e-02
 -2.1397097e-02
 -1.7142152e-02
 -1.1775999e-02
 -1.8963045e-03
 -5.4825475e-03
  8.2412669e-03
 -2.6308381e-04
  1.4589766e-02
  9.4961468e-03
 -2.8388994e-02
 -9.0061984e-04
  8.1569497e-03
  3.9058382e-04
  3.6492026e-03
 -1.5483342e-01
 -9.5474198e-03
 -5.6853011e-04
  8.0790743e-03
 -1.1844102e-03
  1.5658751e-03
  2.7735203e-03
  2.5826909e-02
 -2.4693020e-02
 -1.8272009e-02
  8.8353883e-03
 -2.4416229e-02
 -1.1172887e-02
  3.7839070e-02
 -2.0809082e-02
  4.8253324e-02
 -3.7629555e-03
 -7.6264613e-03
 -8.0591561e-03
  1.3977169e-02
  1.4477728e-02
 -3.1577591e-03
 -1.6811807e-02
  7.7468310e-03
  1.6605272e-04
 -8.9505082e-03
  6.0785584e-02
  1.8222729e-05
 -8.0486229e-03
 -2.1003837e-02
  1.2724863e-02
 -5.8552035e-04
 -4.6847835e-02
 -1.5416888e-03
 -7.6977527e-03
  4.0615496e-04
  1.3175005e-02
 -3.0835802e-03
 -1.4685121e-03
  1.9741077e-02
 -6.3858568e-03
 -5.2693598e-03
 -3.2979534e-03
  3.8387948e-03
 -7.0810928e-03
 -2.8903488e-02
  2.3167983e-03
  1.5004239e-03
 -1.2030709e-02
  8.7068956e-03
 -3.7087584e-03
 -4.6901437e-03
 -1.0647887e-02
  2.5806890e-03
  6.7524072e-03
  3.0837869e-03
 -9.7885603e-01
  8.1145618e-04
  1.0130062e-03
 -1.0884698e-02
  5.0551184e-03
  2.1745861e-03
  1.6076267e+00
 -2.3712260e-03
 -7.1276478e-03
  1.3810839e-02
 -1.1585529e-03
  4.7069352e-02
 -2.5197063e-02
 -5.1169554e-03
  1.8372051e-02
  1.3489152e-02
  9.0031857e-03
  1.0137775e-03
  1.0583227e-02
  3.8352371e-03
  3.9326837e-03
  2.3276884e-02
  4.5981253e-03
  9.1269874e-04
  9.1088004e-03
  1.0736017e-02
 -6.8044630e-03
 -2.1556099e-03
  7.6798307e-05
  4.7054305e-03
  1.1024690e-02
  1.9356335e-03
 -2.2313008e-02
 -2.2577304e-02
  1.8871363e-02
  2.0354392e-02
 -1.2726192e-02
  5.3574593e-04
  2.4139792e-02
  3.6453577e-03
 -9.9220304e-03
  1.7331064e-02
 -7.1443510e-03
  5.0761281e-03
  1.2919531e-03
  4.5335349e-03
  7.0650415e-03
 -8.7447400e-04
 -2.6411524e-02
 -1.3637681e-02
 -9.1441497e-03
 -9.5670279e-03
  4.6496028e-03
 -1.7310092e-02
 -2.9499112e-03
 -1.3488837e-02
  1.7121238e-01
  1.3355663e-02
 -5.7104331e-02
  2.0127866e-02
 -1.4700230e-03
  6.5105180e-03
 -8.1266817e-03
 -1.3984302e-03
 -5.2055740e-03
  2.3076436e-03
  1.0563435e-02
  2.6679445e-02
  3.0271017e-03
 -1.9384103e-03
 -5.2293940e-03
 -1.5401153e-02
 -1.5929552e-02
  2.3799609e-02
 -1.1037890e-02
  1.2562639e-02
 -3.3035830e-02
 -3.2404130e-03
 -5.1994948e-03
 -2.1997703e-02
  7.1519762e-03
 -2.4138073e-02
  1.4903466e-02
  7.4044307e-04
 -1.3842450e-02
  1.8289205e-02
  3.3246099e-03
 -3.7989405e-03
  1.0921498e-02
 -3.4124528e-03
 -9.5842662e-04
  5.7694710e-06
 -6.3669076e-03
  1.2458039e-02
  2.3885099e-02
 -2.7198346e-02
  6.1521441e-04
 -4.7794334e-03
  2.5632947e-03
 -1.9575036e-03
 -1.3915116e-02
 -9.0661012e-03
  9.3564996e-03
  1.3149092e-02
 -1.5746173e-02
  1.2675161e-03
 -1.1587527e-02
 -5.8608926e-03
  5.0909119e-03
 -7.6631079e-03
  2.1320997e-02
 -8.7736547e-03
 -1.0926939e-02
  1.1271035e-02
  7.9993578e-03
  3.7020165e-02
  2.7995482e-02
 -1.1781413e-02
 -9.7652059e-03
  6.3639800e-03
 -1.2661192e-01
 -7.9693990e-03
 -6.5771239e-03
  4.8865429e-03
  7.4820835e-03
 -5.5257734e-03
  8.3130775e-03
  1.7282078e-02
 -2.4485593e-03
 -3.8247582e-02
  1.1892415e-02
 -3.1576551e-02
  2.1906545e-02
  2.2298262e-02
  2.2202216e-02
 -3.8826903e-03
 -1.3997995e-02
  2.2020951e-02
  6.4044385e-03
 -5.6873308e-03
 -3.3713537e-03
 -9.4274851e-03
 -7.2526182e-03
  2.6730674e-03
  1.1554213e-02
 -2.3369531e-03
 -1.6883213e-02
 -6.1070593e-04
 -1.4161639e-02
  5.5502094e-03
 -7.7443424e-04
  7.3406505e-03
 -3.1082192e-03
  5.8761989e-03
 -6.4710779e-03
 -4.1826190e-03
 -3.1797361e-02
  8.1277639e-03
  2.9302195e-03
 -1.0770872e-03
  4.2325826e-04
 -3.5776589e-03
 -5.8587408e-03
 -1.0483588e-02
  2.5567834e-03
  4.8439777e-03
  3.3894847e-03
  1.9278169e-02
 -7.9390453e-03
  3.9082237e-02
 -1.3900511e-03
 -1.5420554e-02
 -3.1709585e-02
  1.4220779e-02
  9.6220719e-03
  3.9014651e-03
 -4.8750858e-03
 -8.0719581e-03
  7.2045508e-03
 -5.0038802e-03
  1.7174346e-02
  5.0865398e-03
 -3.0829848e-03
 -9.4712852e-03
 -5.1673525e-03
  1.6787777e-02
  3.0652726e-02
 -7.6920222e-03
  1.1007045e-02
 -1.5086506e-03
 -1.8028731e-02
 -1.7275783e-03
  2.2360876e-03
 -3.1417767e-03
  1.2789675e-02
 -6.4059987e-04
 -4.8793424e-03
 -9.4772701e-04
  1.6347509e-02
 -1.2927155e-03
 -1.3453227e-02
  5.6906058e-03
 -2.0899680e-02
  1.6785300e-04
 -9.2060659e-03
  2.4817542e-03
 -4.8233229e-03
 -2.3789359e-03
  8.0564255e-03
 -1.3297114e-02
  1.6001800e-02
  5.3741811e-03
  5.1356656e-03
 -2.2623423e-03
  7.1068662e-03
 -3.6195496e-03
  5.6483890e-03
 -3.1384320e-03
  3.5008003e-03
 -1.8809097e-02
  5.7070428e-03
  1.1870831e-03
  8.8874875e-03
 -4.8173680e-03
 -8.6208172e-03
 -2.5890999e-02
 -3.7844805e-03
  2.1502974e-03
 -2.4544809e-02
  1.8801197e-02
  1.2106510e-02
 -1.1740483e-03
  1.2425186e-02
 -1.1327730e-02
 -2.9059290e-03
 -2.4846052e-03
 -3.9019256e-03
 -1.6293764e-02
  5.8783703e-02
  2.3233229e-03
  1.3498752e-02
 -1.6313547e-02
  3.9571707e-04
 -1.3040685e-02
 -2.6558156e-03
 -1.7127056e-02
  9.4660977e-03
 -1.9037729e-02
 -5.7164659e-03
 -7.2689779e-04
  5.0200283e-04
 -3.0490903e-03
 -2.8979874e-03
  5.9439922e-03
 -2.1886557e-02
 -8.2994439e-03
  1.5159425e-03
 -4.8819967e-03
 -1.1479843e-03
 -4.2677983e-03
  5.2711886e-04
 -1.1555260e-02
 -8.2277898e-03
 -4.0748627e-03
  2.2800725e-04
  7.0823701e-03
 -7.1661496e-03
 -3.6391891e-03
  1.0629481e-02
  2.9698394e-03
 -3.7676203e-01
  1.2760920e-02
 -7.6697202e-04
  1.1164068e-02
 -5.4522636e-03
 -4.4611548e-03
 -8.1035227e-04
  1.0856464e-02
  1.2332177e-02
  4.1522100e-03
  1.3329013e-02
 -1.1747593e-02
 -9.4282394e-03
  1.9044527e-03
 -1.0480897e-03
 -1.4237729e-02
 -7.0007239e-03
 -1.4991716e-02
 -1.5271294e-02
 -1.2417480e-02
  1.1264909e-02
 -4.1372533e-04
 -5.6196931e-03
  1.0238558e-02
 -1.3140025e-02
 -3.5942171e-03
 -1.6440660e-02
 -4.3975315e-03
  3.1599667e-02
  6.1631040e-03
 -3.3036273e-03
 -4.7876830e-03
 -8.5095894e-03
  2.4728077e-03
  1.8618364e-02
  1.7433442e-02
 -5.7609431e-03
 -2.3426651e-03
 -1.1349047e-02
  9.9489568e-03
  1.4387770e-02
  6.2567261e-03
 -2.8591813e-04
 -2.2939127e-02
 -9.3172090e-03
  2.0547321e-03
 -1.3004515e-02
 -1.2570479e-02
 -1.0094055e-02
 -3.6474101e-03
  8.7903133e-03
 -2.1280134e-02
  5.8046109e-03
  1.1939029e-03
 -9.0979049e-03
 -1.0194847e-02
 -5.7539716e-04
  1.2329592e-02
  4.8649092e-03
 -7.2003012e-03
  1.1423919e-02
 -4.0965653e-03
 -2.3634469e-02
 -2.2591369e-02
  2.1558490e-02
 -3.7212156e-02
  7.6606544e-03
 -8.3670858e-03
  3.4561630e-02
  4.9658450e-03
 -2.7175103e-03
  2.4014828e-03
  4.0017250e-03
 -5.1506758e-03
  2.0960717e-02
  1.0936324e-02
 -8.7319640e-03
  4.5650234e-03
 -1.6488512e-01
  5.2699023e-03
 -3.6678824e-03
 -1.9769367e-02
 -6.2521575e-03
  2.0339375e-04
 -5.3067785e-03
  1.0275910e-01
 -8.0053741e-03
  1.5378224e-03
 -2.2302739e-02
 -1.7828257e-03
 -2.6605939e-03
 -6.1402321e-03
 -1.7496733e-02
 -1.3303190e-03
 -6.5350891e-03
 -7.9898601e-03
  1.1501493e-02
  6.6532772e-03
  2.3650792e-03
  1.7341284e-02
 -1.6355241e-02
  2.0918991e-02
 -6.3143908e-03
 -1.5336564e-03
  1.5647318e-02
  1.1436033e-01
 -9.9145221e-03
 -1.3115314e-03
 -2.6913814e-02
 -1.1990839e-02
  1.5710615e-02
 -3.5309009e-03
  1.5418061e-02
 -4.3125339e-03
 -1.9526569e-02
  3.3312133e-03
 -1.9562275e-03
 -7.1647740e-03
  1.4527510e-03
 -1.0190251e-02
 -2.3942912e-02
 -1.7076851e-03
  6.4642183e-03
  6.1099396e-05
 -9.4232345e-03
 -1.4486589e-02
  8.5311346e-03
  1.3291956e-02
 -3.2014183e-03
 -2.2051042e-02
  8.7996386e-03
  5.2460227e-03
 -5.3008122e-04
 -5.5603584e-04
 -1.8005406e-02
  1.0563952e-02
  1.0825526e-02
 -1.6226593e-02
 -1.1068028e-03
 -1.6276896e-02
 -6.6979895e-03
  1.9327387e-03
  9.8466147e-03
  1.6348744e-02
  8.6515059e-04
 -2.9962894e-03
  1.6680941e-03
 -5.5166689e-04
  3.9875392e-02
 -2.2553087e-03
  2.7797796e-02
  7.2505418e-03
  1.3661312e-02
 -3.2011452e-03
 -1.2019685e-02
  3.5074041e-03
  4.7634640e-03
  5.8643552e-03
  1.9963481e-02
 -9.5168874e-03
 -5.1233852e-05
  1.7541101e-02
  1.5056152e-03
 -6.4344015e-03
  1.7595293e-04
  2.3101093e-02
  4.6432693e-03
 -3.8732413e-02
  6.5355962e-05
 -3.3133754e-03
 -2.0479286e-02
 -9.2928475e-03
  1.7220534e-02
 -6.2497621e-03
  2.3835402e-02
  5.9463372e-03
  3.0011469e-02
 -2.2356950e-03
  3.8351618e-02
 -5.1035578e-03
  1.0803478e-02
  2.8076039e-03
 -1.7075606e-02
 -1.1853375e-02
  2.7240282e-02
  5.2331272e-03
 -3.2208853e-03
  5.8866129e-03
 -2.4939610e-02
  1.6997688e-03
  1.2799134e-02
  2.9702676e-02
 -3.3075444e-02
  3.2802120e-02
  2.9974789e-03
  7.2483957e-04
  2.3282204e-02
  8.7073063e-03
 -1.4339538e-02
 -1.8775791e-02
 -1.7334651e-02
  2.4926651e-03
  7.9279207e-03
  4.1894102e-03
  5.2687591e-03
  1.4110216e-03
  8.7733604e-03
  1.2011998e-02
 -2.2353281e-03
  1.0536602e-02
  3.3144250e-03
  1.5369328e-02
 -4.7791181e-03
  6.7331642e-03
  1.8417038e-02
 -3.1746819e-03
  4.8574116e-03
  9.1736403e-04
 -4.1442695e-03
  2.6795510e-02
  1.2117410e-03
  5.8028493e-03
  3.1036320e-03
 -2.3982443e-03
 -9.5121367e-03
  3.8066977e-03
 -1.1081265e-02
  4.1705482e-03
  7.6859561e-03
 -3.2814141e-02
  5.4525575e-03
 -5.4005519e-03
 -1.4489502e-02
 -2.3431338e-02
  6.2353705e-04
  2.6418563e-02
  3.9370991e-03
  1.3584555e-02
  6.7779408e-03
 -3.4728271e-04
  9.1456044e-03
